{"learner":{"attributes":{"best_iteration":"99","best_ntree_limit":"100","scikit_learn":"{\"use_label_encoder\": null, \"n_estimators\": 100, \"objective\": \"binary:logistic\", \"max_depth\": 3, \"max_leaves\": null, \"max_bin\": null, \"grow_policy\": null, \"learning_rate\": 0.1, \"verbosity\": null, \"booster\": null, \"tree_method\": null, \"gamma\": 0, \"min_child_weight\": 1, \"max_delta_step\": null, \"subsample\": 1, \"sampling_method\": null, \"colsample_bytree\": 0.8, \"colsample_bylevel\": null, \"colsample_bynode\": null, \"reg_alpha\": null, \"reg_lambda\": null, \"scale_pos_weight\": 1, \"base_score\": null, \"missing\": NaN, \"num_parallel_tree\": null, \"random_state\": null, \"n_jobs\": null, \"monotone_constraints\": null, \"interaction_constraints\": null, \"importance_type\": null, \"gpu_id\": null, \"validate_parameters\": null, \"predictor\": null, \"enable_categorical\": false, \"feature_types\": null, \"max_cat_to_onehot\": null, \"max_cat_threshold\": null, \"eval_metric\": null, \"early_stopping_rounds\": null, \"callbacks\": null, \"classes_\": [0, 1], \"n_classes_\": 2, \"_estimator_type\": \"classifier\"}"},"feature_names":["diagonal","height_left","height_right","margin_low","margin_up","length"],"feature_types":["float","float","float","float","float","float"],"gradient_booster":{"model":{"gbtree_model_param":{"num_parallel_tree":"1","num_trees":"100","size_leaf_vector":"0"},"tree_info":[0,0,0,0,0,0,0,0,0,0,0,0,0,0,0,0,0,0,0,0,0,0,0,0,0,0,0,0,0,0,0,0,0,0,0,0,0,0,0,0,0,0,0,0,0,0,0,0,0,0,0,0,0,0,0,0,0,0,0,0,0,0,0,0,0,0,0,0,0,0,0,0,0,0,0,0,0,0,0,0,0,0,0,0,0,0,0,0,0,0,0,0,0,0,0,0,0,0,0,0],"trees":[{"base_weights":[6.648936E-1,-1.9210526E0,1.78327E0,5E-1,-1.9469026E0,1.9211823E0,-1.804878E0,-1.9638826E0,-7.692308E-1,6.976744E-1,1.9672132E0],"categories":[],"categories_nodes":[],"categories_segments":[],"categories_sizes":[],"default_left":[1,1,1,0,1,1,0,0,0,0,0],"id":0,"left_children":[1,3,5,-1,7,9,-1,-1,-1,-1,-1],"loss_changes":[1.0908408E3,8.108032E0,1.3361298E2,0E0,7.489624E-1,1.2918457E1,0E0,0E0,0E0,0E0,0E0],"parents":[2147483647,0,0,1,1,2,2,4,4,5,5],"right_children":[2,4,6,-1,8,10,-1,-1,-1,-1,-1],"split_conditions":[1.12375E2,2.9250002E0,5.0550003E0,5E-2,1.1234E2,1.12555E2,-1.804878E-1,-1.9638826E-1,-7.692308E-2,6.976744E-2,1.9672132E-1],"split_indices":[5,4,3,0,5,5,0,0,0,0,0],"split_type":[0,0,0,0,0,0,0,0,0,0,0],"sum_hessian":[3.75E2,1.13E2,2.62E2,1E0,1.12E2,2.5275E2,9.25E0,1.0975E2,2.25E0,9.75E0,2.43E2],"tree_param":{"num_deleted":"0","num_feature":"6","num_nodes":"11","size_leaf_vector":"0"}},{"base_weights":[6.03838E-1,-1.7476923E0,1.6207677E0,-2.4498425E-1,-1.7723714E0,1.746883E0,-1.6545337E0,-1.7875944E0,-7.167359E-1,6.351231E-1,1.7890546E0],"categories":[],"categories_nodes":[],"categories_segments":[],"categories_sizes":[],"default_left":[1,1,1,0,1,1,0,0,0,0,0],"id":1,"left_children":[1,3,5,-1,7,9,-1,-1,-1,-1,-1],"loss_changes":[8.936596E2,3.7543335E0,1.1052582E2,0E0,5.018921E-1,1.0650574E1,0E0,0E0,0E0,0E0,0E0],"parents":[2147483647,0,0,1,1,2,2,4,4,5,5],"right_children":[2,4,6,-1,8,10,-1,-1,-1,-1,-1],"split_conditions":[1.12375E2,4.085E0,5.0550003E0,-2.4498425E-2,1.1234E2,1.12555E2,-1.6545337E-1,-1.7875944E-1,-7.1673594E-2,6.351231E-2,1.7890547E-1],"split_indices":[5,3,3,0,5,5,0,0,0,0,0],"split_type":[0,0,0,0,0,0,0,0,0,0,0],"sum_hessian":[3.715219E2,1.1194459E2,2.595773E2,1.9853169E0,1.09959274E2,2.5040224E2,9.175075E0,1.077126E2,2.246675E0,9.738145E0,2.406641E2],"tree_param":{"num_deleted":"0","num_feature":"6","num_nodes":"11","size_leaf_vector":"0"}},{"base_weights":[5.570151E-1,-1.6158795E0,1.4967934E0,-1.6376595E0,-4.796003E-1,5.884453E-2,1.573146E0,-5.1253563E-1,-1.6456859E0,2.8601485E-1,-1.0318619E0,1.2677875E0,-5.1196814E-1,1.6267921E0,1.1444094E0],"categories":[],"categories_nodes":[],"categories_segments":[],"categories_sizes":[],"default_left":[1,1,1,1,1,1,1,0,0,0,0,0,0,0,0],"id":2,"left_children":[1,3,5,7,9,11,13,-1,-1,-1,-1,-1,-1,-1,-1],"loss_changes":[7.4481793E2,1.9429932E0,2.7828491E1,1.2966919E-1,1.7697479E0,1.021461E1,3.6917114E0,0E0,0E0,0E0,0E0,0E0,0E0,0E0,0E0],"parents":[2147483647,0,0,1,1,2,2,3,3,4,4,5,5,6,6],"right_children":[2,4,6,8,10,12,14,-1,-1,-1,-1,-1,-1,-1,-1],"split_conditions":[1.12375E2,1.12335E2,1.12555E2,1.0368E2,1.04244995E2,1.03885E2,1.04165E2,-5.1253565E-2,-1.6456859E-1,2.8601486E-2,-1.0318619E-1,1.2677875E-1,-5.1196814E-2,1.6267921E-1,1.1444094E-1],"split_indices":[5,5,5,1,1,1,2,0,0,0,0,0,0,0,0],"split_type":[0,0,0,0,0,0,0,0,0,0,0,0,0,0,0],"sum_hessian":[3.6255783E2,1.09246254E2,2.5331157E2,1.0675867E2,2.4875844E0,1.2861501E1,2.4045007E2,1.2155845E0,1.0554308E2,1.2444594E0,1.2431251E0,3.733396E0,9.128104E0,2.1122583E2,2.9224234E1],"tree_param":{"num_deleted":"0","num_feature":"6","num_nodes":"15","size_leaf_vector":"0"}},{"base_weights":[5.193025E-1,-1.5120858E0,1.395073E0,3.4669074E-1,-1.5369697E0,1.5157003E0,-1.5880662E0,-7.1026707E-1,-1.5531157E0,5.6550527E-1,1.5536299E0],"categories":[],"categories_nodes":[],"categories_segments":[],"categories_sizes":[],"default_left":[1,1,1,0,1,1,0,0,0,0,0],"id":3,"left_children":[1,3,5,-1,7,9,-1,-1,-1,-1,-1],"loss_changes":[6.2775385E2,5.4552155E0,9.10217E1,0E0,3.0108643E-1,7.670166E0,0E0,0E0,0E0,0E0,0E0],"parents":[2147483647,0,0,1,1,2,2,4,4,5,5],"right_children":[2,4,6,-1,8,10,-1,-1,-1,-1,-1],"split_conditions":[1.12375E2,2.935E0,5.0550003E0,3.4669075E-2,4.18E0,1.12555E2,-1.5880662E-1,-7.1026705E-2,-1.5531157E-1,5.655053E-2,1.55363E-1],"split_indices":[5,4,3,0,3,5,0,0,0,0,0],"split_type":[0,0,0,0,0,0,0,0,0,0,0],"sum_hessian":[3.5067722E2,1.054213E2,2.4525592E2,1.2218158E0,1.04199486E2,2.3619688E2,9.05903E0,2.8579519E0,1.0134153E2,9.677209E0,2.2651967E2],"tree_param":{"num_deleted":"0","num_feature":"6","num_nodes":"11","size_leaf_vector":"0"}},{"base_weights":[4.8907807E-1,-1.4274184E0,1.3147539E0,-1.20154686E-1,-1.4513899E0,1.429921E0,-1.4833426E0,-1.4659567E0,-5.482501E-1,5.938758E-1,1.4723245E0],"categories":[],"categories_nodes":[],"categories_segments":[],"categories_sizes":[],"default_left":[1,1,1,0,1,1,0,0,0,0,0],"id":4,"left_children":[1,3,5,-1,7,9,-1,-1,-1,-1,-1],"loss_changes":[5.345371E2,3.0168304E0,7.810074E1,0E0,5.1071167E-1,7.1718445E0,0E0,0E0,0E0,0E0,0E0],"parents":[2147483647,0,0,1,1,2,2,4,4,5,5],"right_children":[2,4,6,-1,8,10,-1,-1,-1,-1,-1],"split_conditions":[1.12375E2,4.085E0,5.0550003E0,-1.2015468E-2,1.1234E2,1.12604996E2,-1.4833426E-1,-1.4659567E-1,-5.4825008E-2,5.9387583E-2,1.4723246E-1],"split_indices":[5,3,3,0,5,5,0,0,0,0,0],"split_type":[0,0,0,0,0,0,0,0,0,0,0],"sum_hessian":[3.356145E2,1.0083504E2,2.3477948E2,1.923998E0,9.891103E1,2.259678E2,8.811667E0,9.672773E1,2.183308E0,1.1631973E1,2.1433583E2],"tree_param":{"num_deleted":"0","num_feature":"6","num_nodes":"11","size_leaf_vector":"0"}},{"base_weights":[4.6390295E-1,-1.357671E0,1.2482122E0,3.8046205E-1,-1.3835629E0,1.3132887E0,-9.531339E-2,-1.3981736E0,-5.143011E-1,1.8605456E-1,1.3682489E0,1.2079057E0,-1.207979E0],"categories":[],"categories_nodes":[],"categories_segments":[],"categories_sizes":[],"default_left":[1,1,1,0,1,1,1,0,0,0,0,0,0],"id":5,"left_children":[1,3,5,-1,7,9,11,-1,-1,-1,-1,-1,-1],"loss_changes":[4.5883356E2,4.8819885E0,1.9726532E1,0E0,4.94812E-1,1.2997192E1,1.7829815E1,0E0,0E0,0E0,0E0,0E0,0E0],"parents":[2147483647,0,0,1,1,2,2,4,4,5,5,6,6],"right_children":[2,4,6,-1,8,10,12,-1,-1,-1,-1,-1,-1],"split_conditions":[1.12375E2,2.935E0,3.395E0,3.8046207E-2,1.1234E2,1.12545E2,1.03975006E2,-1.3981736E-1,-5.1430114E-2,1.8605456E-2,1.3682489E-1,1.2079056E-1,-1.20797895E-1],"split_indices":[5,4,4,0,5,5,2,0,0,0,0,0,0],"split_type":[0,0,0,0,0,0,0,0,0,0,0,0,0],"sum_hessian":[3.1897345E2,9.578345E1,2.2319E2,1.2048831E0,9.457856E1,2.1290024E2,1.0289765E1,9.241675E1,2.1618142E0,1.01016035E1,2.0279863E2,4.699657E0,5.590109E0],"tree_param":{"num_deleted":"0","num_feature":"6","num_nodes":"13","size_leaf_vector":"0"}},{"base_weights":[4.4166344E-1,-1.2987407E0,1.1871896E0,-2.4783392E-1,-1.3333194E0,1.3029032E0,-1.4205564E0,-9.006114E-1,4.7948012E-1,5.174723E-1,1.3466659E0],"categories":[],"categories_nodes":[],"categories_segments":[],"categories_sizes":[],"default_left":[1,1,1,1,0,1,0,0,0,0,0],"id":6,"left_children":[1,3,5,7,-1,9,-1,-1,-1,-1,-1],"loss_changes":[3.9517114E2,2.993042E0,6.609775E1,2.3982239E0,0E0,6.328491E0,0E0,0E0,0E0,0E0,0E0],"parents":[2147483647,0,0,1,1,2,2,3,3,5,5],"right_children":[2,4,6,8,-1,10,-1,-1,-1,-1,-1],"split_conditions":[1.12375E2,4.18E0,5.0550003E0,1.11725006E2,-1.3333194E-1,1.12604996E2,-1.4205565E-1,-9.006114E-2,4.7948014E-2,5.1747233E-2,1.3466659E-1],"split_indices":[5,3,3,5,0,5,0,0,0,0,0],"split_type":[0,0,0,0,0,0,0,0,0,0,0],"sum_hessian":[3.0237128E2,9.045808E1,2.1191321E2,3.141755E0,8.731632E1,2.0338861E2,8.524598E0,1.5301487E0,1.6116065E0,1.1411166E1,1.9197745E2],"tree_param":{"num_deleted":"0","num_feature":"6","num_nodes":"11","size_leaf_vector":"0"}},{"base_weights":[4.232283E-1,1.1033722E0,-1.1405269E0,1.2254299E0,-1.8296231E-1,9.2675793E-1,-1.2065276E0,1.293697E0,8.972003E-1,8.923887E-1,-6.847005E-1,4.430595E-1,-1.2455308E0],"categories":[],"categories_nodes":[],"categories_segments":[],"categories_sizes":[],"default_left":[1,1,1,1,1,0,1,0,0,0,0,0,0],"id":7,"left_children":[1,3,5,7,9,-1,11,-1,-1,-1,-1,-1,-1],"loss_changes":[3.0502496E2,3.1554337E1,1.299707E1,2.9259644E0,1.0411125E1,0E0,6.007988E0,0E0,0E0,0E0,0E0,0E0,0E0],"parents":[2147483647,0,0,1,1,2,2,3,3,4,4,6,6],"right_children":[2,4,6,8,10,-1,12,-1,-1,-1,-1,-1,-1],"split_conditions":[4.665E0,3.3649998E0,2.915E0,3.205E0,1.04035E2,9.26758E-2,1.03630005E2,1.293697E-1,8.972003E-2,8.9238875E-2,-6.847005E-2,4.430595E-2,-1.24553084E-1],"split_indices":[3,4,4,4,1,0,1,0,0,0,0,0,0],"split_type":[0,0,0,0,0,0,0,0,0,0,0,0,0],"sum_hessian":[2.8460797E2,1.9854616E2,8.6061806E1,1.8138249E2,1.716366E1,2.2591357E0,8.3802666E1,1.4771782E2,3.3664684E1,5.212776E0,1.1950884E1,1.6964003E0,8.210627E1],"tree_param":{"num_deleted":"0","num_feature":"6","num_nodes":"13","size_leaf_vector":"0"}},{"base_weights":[4.0446994E-1,-1.2034196E0,1.1075244E0,1.0252016E0,-1.2491693E0,1.1903554E0,1.315484E-1,2.8802225E-1,1.2300559E0,-9.598637E-1,8.0331147E-1],"categories":[],"categories_nodes":[],"categories_segments":[],"categories_sizes":[],"default_left":[1,1,1,0,0,1,1,0,0,0,0],"id":8,"left_children":[1,3,5,-1,-1,7,9,-1,-1,-1,-1],"loss_changes":[3.071186E2,9.720177E0,1.5100464E1,0E0,0E0,5.8731995E0,1.2420142E1,0E0,0E0,0E0,0E0],"parents":[2147483647,0,0,1,1,2,2,5,5,6,6],"right_children":[2,4,6,-1,-1,8,10,-1,-1,-1,-1],"split_conditions":[1.12395004E2,2.9050002E0,3.355E0,1.0252016E-1,-1.2491693E-1,1.12545E2,1.1291E2,2.8802225E-2,1.2300559E-1,-9.598637E-2,8.033115E-2],"split_indices":[5,4,4,0,0,5,5,0,0,0,0],"split_type":[0,0,0,0,0,0,0,0,0,0,0],"sum_hessian":[2.69503E2,8.17739E1,1.8772908E2,1.2142649E0,8.055964E1,1.7284045E2,1.4888631E1,7.631964E0,1.652085E2,5.509113E0,9.379518E0],"tree_param":{"num_deleted":"0","num_feature":"6","num_nodes":"11","size_leaf_vector":"0"}},{"base_weights":[3.8941318E-1,-1.1624172E0,1.0637667E0,9.756019E-1,-1.2088706E0,1.1471602E0,1.20692454E-1,-1.2244238E0,-5.120459E-1,2.6354453E-1,1.188671E0,8.3301884E-1,-8.825819E-1],"categories":[],"categories_nodes":[],"categories_segments":[],"categories_sizes":[],"default_left":[1,1,1,0,1,1,1,0,0,0,0,0,0],"id":9,"left_children":[1,3,5,-1,7,9,11,-1,-1,-1,-1,-1,-1],"loss_changes":[2.670763E2,8.869492E0,1.3829346E1,0E0,1.9919586E-1,5.6675873E0,1.1845719E1,0E0,0E0,0E0,0E0,0E0,0E0],"parents":[2147483647,0,0,1,1,2,2,4,4,5,5,6,6],"right_children":[2,4,6,-1,8,10,12,-1,-1,-1,-1,-1,-1],"split_conditions":[1.12395004E2,2.9050002E0,3.355E0,9.756019E-2,1.1234E2,1.12545E2,1.04065E2,-1.2244238E-1,-5.1204592E-2,2.6354453E-2,1.188671E-1,8.330189E-2,-8.825819E-2],"split_indices":[5,4,4,0,5,5,2,0,0,0,0,0,0],"split_type":[0,0,0,0,0,0,0,0,0,0,0,0,0],"sum_hessian":[2.5303177E2,7.642891E1,1.7660286E2,1.199941E0,7.5228966E1,1.6205626E2,1.45465975E1,7.28459E1,2.3830671E0,7.6012654E0,1.5445499E2,8.606013E0,5.9405837E0],"tree_param":{"num_deleted":"0","num_feature":"6","num_nodes":"13","size_leaf_vector":"0"}},{"base_weights":[3.7550387E-1,-9.8128563E-1,1.0939709E0,1.1857835E0,-1.0654268E0,1.1464833E0,2.731517E-3,-1.1907669E0,-3.0225205E-1,1.1757514E0,7.9303986E-1,9.8824835E-1,-9.057323E-1],"categories":[],"categories_nodes":[],"categories_segments":[],"categories_sizes":[],"default_left":[1,1,1,0,1,1,1,0,0,0,0,0,0],"id":10,"left_children":[1,3,5,-1,7,9,11,-1,-1,-1,-1,-1,-1],"loss_changes":[2.3318253E2,1.6390526E1,8.944595E0,0E0,7.329666E0,6.086731E-1,8.211004E0,0E0,0E0,0E0,0E0,0E0,0E0],"parents":[2147483647,0,0,1,1,2,2,4,4,5,5,6,6],"right_children":[2,4,6,-1,8,10,12,-1,-1,-1,-1,-1,-1],"split_conditions":[1.12555E2,2.915E0,3.395E0,1.1857835E-1,1.1234E2,3.295E0,1.03975006E2,-1.1907669E-1,-3.0225206E-2,1.17575146E-1,7.930399E-2,9.882484E-2,-9.057323E-2],"split_indices":[5,4,4,0,5,4,2,0,0,0,0,0,0],"split_type":[0,0,0,0,0,0,0,0,0,0,0,0,0],"sum_hessian":[2.3710728E2,8.196141E1,1.5514587E2,2.5740316E0,7.9387375E1,1.4797446E2,7.1714106E0,6.770719E1,1.1680184E1,1.3450937E2,1.3465085E1,3.397702E0,3.7737083E0],"tree_param":{"num_deleted":"0","num_feature":"6","num_nodes":"13","size_leaf_vector":"0"}},{"base_weights":[3.632913E-1,8.9334124E-1,-4.1391143E-1,1.0063138E0,1.3355805E-1,4.4845414E-1,-6.833208E-1,1.1257359E0,7.315709E-1,6.214198E-1,-7.119883E-1,5.8067197E-1,-4.96262E-1,-3.6698973E-1,-1.0826006E0],"categories":[],"categories_nodes":[],"categories_segments":[],"categories_sizes":[],"default_left":[1,1,1,1,1,1,1,0,0,0,0,0,0,0,0],"id":11,"left_children":[1,3,5,7,9,11,13,-1,-1,-1,-1,-1,-1,-1,-1],"loss_changes":[9.216217E1,1.1263634E1,2.1455431E1,2.9643555E0,8.008657E0,3.0702143E0,8.413387E0,0E0,0E0,0E0,0E0,0E0,0E0,0E0,0E0],"parents":[2147483647,0,0,1,1,2,2,3,3,4,4,5,5,6,6],"right_children":[2,4,6,8,10,12,14,-1,-1,-1,-1,-1,-1,-1,-1],"split_conditions":[3.205E0,1.04185E2,1.03805E2,1.03925E2,3.085E0,3.505E0,3.395E0,1.1257359E-1,7.3157094E-2,6.214198E-2,-7.119883E-2,5.80672E-2,-4.96262E-2,-3.6698975E-2,-1.0826006E-1],"split_indices":[4,2,2,2,4,4,4,0,0,0,0,0,0,0,0],"split_type":[0,0,0,0,0,0,0,0,0,0,0,0,0,0,0],"sum_hessian":[2.2182079E2,1.3179057E2,9.003021E1,1.1444867E2,1.7341904E1,2.1272726E1,6.8757484E1,7.761461E1,3.683406E1,1.1165006E1,6.1768975E0,1.899906E1,2.273667E0,3.943448E1,2.9323004E1],"tree_param":{"num_deleted":"0","num_feature":"6","num_nodes":"15","size_leaf_vector":"0"}},{"base_weights":[3.4189847E-1,9.4954765E-1,-1.0636709E0,1.0625054E0,-6.976343E-2,6.89879E-1,-1.112075E0,1.096916E0,2.9098478E-1,5.662033E-1,-8.066229E-1,3.167132E-1,-1.1474103E0],"categories":[],"categories_nodes":[],"categories_segments":[],"categories_sizes":[],"default_left":[1,1,1,1,1,0,1,0,0,0,0,0,0],"id":12,"left_children":[1,3,5,7,9,-1,11,-1,-1,-1,-1,-1,-1],"loss_changes":[1.8374213E2,1.7333603E1,6.288376E0,3.2650757E0,7.904394E0,0E0,3.5785522E0,0E0,0E0,0E0,0E0,0E0,0E0],"parents":[2147483647,0,0,1,1,2,2,3,3,4,4,6,6],"right_children":[2,4,6,8,10,-1,12,-1,-1,-1,-1,-1,-1],"split_conditions":[4.6949997E0,3.3649998E0,2.915E0,4.5950003E0,1.0405E2,6.89879E-2,1.03630005E2,1.096916E-1,2.909848E-2,5.662033E-2,-8.0662295E-2,3.1671323E-2,-1.1474103E-1],"split_indices":[3,4,4,3,2,0,1,0,0,0,0,0,0],"split_type":[0,0,0,0,0,0,0,0,0,0,0,0,0],"sum_hessian":[2.1294873E2,1.48901E2,6.404774E1,1.3400813E2,1.4892859E1,1.3644599E0,6.2683277E1,1.2788268E2,6.12545E0,8.117999E0,6.774861E0,1.3206217E0,6.1362656E1],"tree_param":{"num_deleted":"0","num_feature":"6","num_nodes":"13","size_leaf_vector":"0"}},{"base_weights":[3.2895446E-1,9.225869E-1,-9.995301E-1,1.0270883E0,3.2228056E-1,-4.0779096E-1,-1.1876118E0,1.0933394E0,6.8041265E-1,9.232312E-1,-8.913396E-2,2.4220963E-1,-8.000747E-1],"categories":[],"categories_nodes":[],"categories_segments":[],"categories_sizes":[],"default_left":[1,1,1,1,1,1,0,0,0,0,0,0,0],"id":13,"left_children":[1,3,5,7,9,11,-1,-1,-1,-1,-1,-1,-1],"loss_changes":[1.5957147E2,8.424011E0,6.483917E0,1.9756927E0,5.5586023E0,4.4325457E0,0E0,0E0,0E0,0E0,0E0,0E0,0E0],"parents":[2147483647,0,0,1,1,2,2,3,3,4,4,5,5],"right_children":[2,4,6,8,10,12,-1,-1,-1,-1,-1,-1,-1],"split_conditions":[4.665E0,1.04165E2,4.925E0,4.4049997E0,4.125E0,1.0396001E2,-1.1876118E-1,1.0933395E-1,6.8041265E-2,9.232312E-2,-8.913397E-3,2.4220964E-2,-8.000747E-2],"split_indices":[3,2,3,3,3,2,0,0,0,0,0,0,0],"split_type":[0,0,0,0,0,0,0,0,0,0,0,0,0],"sum_hessian":[2.0017041E2,1.3856035E2,6.1610065E1,1.1741055E2,2.1149792E1,1.5623591E1,4.5986473E1,9.676466E1,2.0645891E1,8.089487E0,1.3060305E1,6.0242243E0,9.599367E0],"tree_param":{"num_deleted":"0","num_feature":"6","num_nodes":"13","size_leaf_vector":"0"}},{"base_weights":[3.1531185E-1,-9.20806E-1,1.0053674E0,4.3798783E-1,-1.0800245E0,1.1122055E0,-1.2498127E0,1.1235363E0,-3.64165E-1,3.236826E-1,-1.1150094E0,1.133497E0,-5.281461E-1],"categories":[],"categories_nodes":[],"categories_segments":[],"categories_sizes":[],"default_left":[1,1,1,1,1,1,0,0,0,0,0,0,0],"id":14,"left_children":[1,3,5,7,9,11,-1,-1,-1,-1,-1,-1,-1],"loss_changes":[1.6278308E2,1.5292957E1,3.0845238E1,4.75145E0,3.3862457E0,4.6937256E0,0E0,0E0,0E0,0E0,0E0,0E0,0E0],"parents":[2147483647,0,0,1,1,2,2,3,3,4,4,5,5],"right_children":[2,4,6,8,10,12,-1,-1,-1,-1,-1,-1,-1],"split_conditions":[1.12555E2,4.185E0,5.0699997E0,3.225E0,2.935E0,3.565E0,-1.2498128E-1,1.1235364E-1,-3.64165E-2,3.236826E-2,-1.1150094E-1,1.133497E-1,-5.281461E-2],"split_indices":[5,3,3,4,4,4,0,0,0,0,0,0,0],"split_type":[0,0,0,0,0,0,0,0,0,0,0,0,0],"sum_hessian":[1.887529E2,6.750131E1,1.2125159E2,6.89631E0,6.0605003E1,1.1625107E2,5.0005155E0,3.5023901E0,3.3939195E0,1.2730795E0,5.9331924E1,1.1506651E2,1.1845537E0],"tree_param":{"num_deleted":"0","num_feature":"6","num_nodes":"13","size_leaf_vector":"0"}},{"base_weights":[3.070171E-1,-8.8852173E-1,9.8334515E-1,-1.121233E0,-1.3660769E-1,1.0403993E0,9.425368E-3,9.589744E-1,-6.236547E-1,1.0498554E0,2.0360847E-1,-8.8307315E-1,7.7863765E-1],"categories":[],"categories_nodes":[],"categories_segments":[],"categories_sizes":[],"default_left":[1,1,1,0,1,1,1,0,0,0,0,0,0],"id":15,"left_children":[1,3,5,-1,7,9,11,-1,-1,-1,-1,-1,-1],"loss_changes":[1.4325441E2,1.1071388E1,6.2658463E0,0E0,9.295652E0,6.303787E-1,5.6712227E0,0E0,0E0,0E0,0E0,0E0,0E0],"parents":[2147483647,0,0,1,1,2,2,4,4,5,5,6,6],"right_children":[2,4,6,-1,8,10,12,-1,-1,-1,-1,-1,-1],"split_conditions":[1.12555E2,1.12165E2,3.395E0,-1.121233E-1,1.03885E2,1.04655E2,1.13225E2,9.589744E-2,-6.2365472E-2,1.04985535E-1,2.0360848E-2,-8.830731E-2,7.786377E-2],"split_indices":[5,5,4,0,1,1,5,0,0,0,0,0,0],"split_type":[0,0,0,0,0,0,0,0,0,0,0,0,0],"sum_hessian":[1.7508809E2,6.314808E1,1.1194002E2,4.7848263E1,1.5299819E1,1.0568076E2,6.259254E0,4.4102583E0,1.0889561E1,1.042481E2,1.4326622E0,2.8289123E0,3.4303417E0],"tree_param":{"num_deleted":"0","num_feature":"6","num_nodes":"13","size_leaf_vector":"0"}},{"base_weights":[2.9765406E-1,-8.5828465E-1,9.5564073E-1,-1.1008288E0,-1.2285659E-1,1.0139366E0,7.968429E-3,9.3600804E-1,-6.1663586E-1,1.0500152E0,6.3618875E-1,8.7427574E-1,-7.1814466E-1],"categories":[],"categories_nodes":[],"categories_segments":[],"categories_sizes":[],"default_left":[1,1,1,0,1,1,1,0,0,0,0,0,0],"id":16,"left_children":[1,3,5,-1,7,9,11,-1,-1,-1,-1,-1,-1],"loss_changes":[1.2574575E2,1.0586151E1,5.8004913E0,0E0,8.95966E0,6.8177795E-1,5.094561E0,0E0,0E0,0E0,0E0,0E0,0E0],"parents":[2147483647,0,0,1,1,2,2,4,4,5,5,6,6],"right_children":[2,4,6,-1,8,10,12,-1,-1,-1,-1,-1,-1],"split_conditions":[1.12555E2,1.12165E2,3.395E0,-1.1008288E-1,3.0949998E0,3.295E0,1.03975006E2,9.36008E-2,-6.1663587E-2,1.05001524E-1,6.3618876E-2,8.742758E-2,-7.181447E-2],"split_indices":[5,5,4,0,4,4,2,0,0,0,0,0,0],"split_type":[0,0,0,0,0,0,0,0,0,0,0,0,0],"sum_hessian":[1.6324771E2,5.9106354E1,1.0414135E2,4.4073925E1,1.5032431E1,9.804049E1,6.1008606E0,4.495863E0,1.0536568E1,8.78685E1,1.0171987E1,2.6888328E0,3.4120278E0],"tree_param":{"num_deleted":"0","num_feature":"6","num_nodes":"13","size_leaf_vector":"0"}},{"base_weights":[2.8910863E-1,-8.297944E-1,9.293833E-1,4.7229472E-1,-1.005494E0,1.057926E0,-1.267118E0,1.0528184E0,-2.2960119E-1,-4.743547E-2,-1.0756476E0,1.082689E0,-4.6822697E-1],"categories":[],"categories_nodes":[],"categories_segments":[],"categories_sizes":[],"default_left":[1,1,1,1,1,1,0,0,0,0,0,0,0],"id":17,"left_children":[1,3,5,7,9,11,-1,-1,-1,-1,-1,-1,-1],"loss_changes":[1.10512665E2,1.3350746E1,2.8982658E1,3.245535E0,3.3034515E0,4.0229034E0,0E0,0E0,0E0,0E0,0E0,0E0,0E0],"parents":[2147483647,0,0,1,1,2,2,3,3,4,4,5,5],"right_children":[2,4,6,8,10,12,-1,-1,-1,-1,-1,-1,-1],"split_conditions":[1.12555E2,4.185E0,5.0699997E0,3.225E0,3.025E0,3.565E0,-1.267118E-1,1.05281845E-1,-2.2960119E-2,-4.743547E-3,-1.0756476E-1,1.0826891E-1,-4.6822697E-2],"split_indices":[5,3,3,4,4,4,0,0,0,0,0,0,0],"split_type":[0,0,0,0,0,0,0,0,0,0,0,0,0],"sum_hessian":[1.5218352E2,5.5281357E1,9.690217E1,6.3718977E0,4.890946E1,9.2034515E1,4.8676496E0,3.2138362E0,3.1580617E0,3.451389E0,4.545807E1,9.085097E1,1.1835492E0],"tree_param":{"num_deleted":"0","num_feature":"6","num_nodes":"13","size_leaf_vector":"0"}},{"base_weights":[2.81598E-1,-1.0212762E0,8.056046E-1,-1.067194E0,-2.6397666E-1,1.3706459E-2,9.363044E-1,4.3490887E-1,-6.963703E-1,6.601663E-1,-8.7882966E-1,9.73452E-1,-1.4355357E-1],"categories":[],"categories_nodes":[],"categories_segments":[],"categories_sizes":[],"default_left":[1,1,1,0,1,1,1,0,0,0,0,0,0],"id":18,"left_children":[1,3,5,-1,7,9,11,-1,-1,-1,-1,-1,-1],"loss_changes":[9.775106E1,1.1496925E0,1.0524704E1,0E0,1.4154955E0,9.487676E0,3.644638E0,0E0,0E0,0E0,0E0,0E0,0E0],"parents":[2147483647,0,0,1,1,2,2,4,4,5,5,6,6],"right_children":[2,4,6,-1,8,10,12,-1,-1,-1,-1,-1,-1],"split_conditions":[1.12335E2,1.12165E2,1.12665E2,-1.067194E-1,1.0403E2,3.205E0,3.495E0,4.3490887E-2,-6.963703E-2,6.601664E-2,-8.7882966E-2,9.7345196E-2,-1.4355357E-2],"split_indices":[5,5,5,0,2,4,4,0,0,0,0,0,0],"split_type":[0,0,0,0,0,0,0,0,0,0,0,0,0],"sum_hessian":[1.4097484E2,4.01638E1,1.0081104E2,3.748193E1,2.6818705E0,1.4437911E1,8.637313E1,1.022832E0,1.6590385E0,8.524211E0,5.9137E0,8.359593E1,2.7772007E0],"tree_param":{"num_deleted":"0","num_feature":"6","num_nodes":"13","size_leaf_vector":"0"}},{"base_weights":[2.7182865E-1,-1.0025938E0,7.763861E-1,-1.0507575E0,-2.509026E-1,2.5782713E-1,9.798844E-1,4.1035295E-1,-6.769518E-1,7.657808E-1,-4.7508478E-1,1.0405129E0,5.626649E-1],"categories":[],"categories_nodes":[],"categories_segments":[],"categories_sizes":[],"default_left":[1,1,1,0,1,1,1,0,0,0,0,0,0],"id":19,"left_children":[1,3,5,-1,7,9,11,-1,-1,-1,-1,-1,-1],"loss_changes":[8.6026695E1,1.1134796E0,9.829025E0,0E0,1.2931737E0,1.0892974E1,1.1410751E0,0E0,0E0,0E0,0E0,0E0,0E0],"parents":[2147483647,0,0,1,1,2,2,4,4,5,5,6,6],"right_children":[2,4,6,-1,8,10,12,-1,-1,-1,-1,-1,-1],"split_conditions":[1.12335E2,1.12165E2,1.12884995E2,-1.05075754E-1,1.0403E2,3.1950002E0,1.04165E2,4.1035295E-2,-6.7695186E-2,7.657808E-2,-4.750848E-2,1.0405129E-1,5.6266494E-2],"split_indices":[5,5,5,0,2,4,2,0,0,0,0,0,0],"split_type":[0,0,0,0,0,0,0,0,0,0,0,0,0],"sum_hessian":[1.3157501E2,3.7037582E1,9.453743E1,3.4433445E1,2.604138E0,2.7282509E1,6.725492E1,1.0348406E0,1.5692972E0,1.6087807E1,1.1194701E1,5.741736E1,9.837563E0],"tree_param":{"num_deleted":"0","num_feature":"6","num_nodes":"13","size_leaf_vector":"0"}},{"base_weights":[2.6307425E-1,-7.65375E-1,8.5597765E-1,2.6588142E-1,-9.3481916E-1,9.6004176E-1,3.025304E-1,-7.6390415E-1,8.9590937E-1,1.1413165E-1,-9.8150396E-1,6.9075906E-1,1.0517801E0,7.014178E-1,-2.8213805E-1],"categories":[],"categories_nodes":[],"categories_segments":[],"categories_sizes":[],"default_left":[1,1,1,1,1,1,1,0,0,0,0,0,0,0,0],"id":20,"left_children":[1,3,5,7,9,11,13,-1,-1,-1,-1,-1,-1,-1,-1],"loss_changes":[7.626609E1,8.264311E0,4.2667694E0,5.389522E0,2.0522308E0,9.074478E-1,3.4590716E0,0E0,0E0,0E0,0E0,0E0,0E0,0E0,0E0],"parents":[2147483647,0,0,1,1,2,2,3,3,4,4,5,5,6,6],"right_children":[2,4,6,8,10,12,14,-1,-1,-1,-1,-1,-1,-1,-1],"split_conditions":[1.12545E2,1.03875E2,1.04165E2,1.1216E2,1.03585E2,1.12985E2,1.04145004E2,-7.6390415E-2,8.959094E-2,1.1413165E-2,-9.8150395E-2,6.9075905E-2,1.0517801E-1,7.0141785E-2,-2.8213805E-2],"split_indices":[5,1,2,5,2,5,1,0,0,0,0,0,0,0,0],"split_type":[0,0,0,0,0,0,0,0,0,0,0,0,0,0,0],"sum_hessian":[1.2299891E2,4.487241E1,7.8126495E1,6.252125E0,3.8620285E1,6.514306E1,1.2983442E1,2.2925088E0,3.959616E0,1.5840415E0,3.7036243E1,1.872083E1,4.6422222E1,7.599222E0,5.3842196E0],"tree_param":{"num_deleted":"0","num_feature":"6","num_nodes":"15","size_leaf_vector":"0"}},{"base_weights":[2.5505608E-1,7.838152E-1,-9.539282E-1,9.0352505E-1,-1.7950545E-1,-4.1272658E-1,-1.1208397E0,9.441506E-1,1.3923466E-1,5.9780246E-1,-7.434137E-1,6.2028533E-1,-7.3560685E-1],"categories":[],"categories_nodes":[],"categories_segments":[],"categories_sizes":[],"default_left":[1,1,1,1,1,1,0,0,0,0,0,0,0],"id":21,"left_children":[1,3,5,7,9,11,-1,-1,-1,-1,-1,-1,-1],"loss_changes":[7.501138E1,9.545876E0,2.7712708E0,2.1209831E0,4.752519E0,3.79877E0,0E0,0E0,0E0,0E0,0E0,0E0,0E0],"parents":[2147483647,0,0,1,1,2,2,3,3,4,4,5,5],"right_children":[2,4,6,8,10,12,-1,-1,-1,-1,-1,-1,-1],"split_conditions":[4.6949997E0,3.375E0,4.9449997E0,4.5950003E0,4.1099997E0,3.0949998E0,-1.1208397E-1,9.441506E-2,1.3923466E-2,5.9780248E-2,-7.434137E-2,6.2028535E-2,-7.3560685E-2],"split_indices":[3,4,3,3,3,4,0,0,0,0,0,0,0],"split_type":[0,0,0,0,0,0,0,0,0,0,0,0,0],"sum_hessian":[1.1517107E2,8.0371574E1,3.4799488E1,7.154313E1,8.828444E0,9.021263E0,2.5778225E1,6.770876E1,3.8343647E0,3.6866076E0,5.1418357E0,1.9289019E0,7.0923615E0],"tree_param":{"num_deleted":"0","num_feature":"6","num_nodes":"13","size_leaf_vector":"0"}},{"base_weights":[2.4494633E-1,-6.8417966E-1,8.523855E-1,-1.015821E0,-5.809903E-2,9.598916E-1,3.2858807E-1,8.392717E-1,-5.170141E-1,9.9759126E-1,5.187152E-1,8.53408E-1,-2.37696E-1],"categories":[],"categories_nodes":[],"categories_segments":[],"categories_sizes":[],"default_left":[1,1,1,0,1,1,1,0,0,0,0,0,0],"id":22,"left_children":[1,3,5,-1,7,9,11,-1,-1,-1,-1,-1,-1],"loss_changes":[6.2166096E1,9.012564E0,3.4250412E0,0E0,7.101138E0,3.9052582E-1,4.0164995E0,0E0,0E0,0E0,0E0,0E0,0E0],"parents":[2147483647,0,0,1,1,2,2,4,4,5,5,6,6],"right_children":[2,4,6,-1,8,10,12,-1,-1,-1,-1,-1,-1],"split_conditions":[1.12665E2,1.12165E2,3.295E0,-1.015821E-1,3.0949998E0,1.04365005E2,1.03975006E2,8.392718E-2,-5.1701408E-2,9.9759124E-2,5.187152E-2,8.53408E-2,-2.37696E-2],"split_indices":[5,5,4,0,4,1,2,0,0,0,0,0,0],"split_type":[0,0,0,0,0,0,0,0,0,0,0,0,0],"sum_hessian":[1.08114586E2,4.2690212E1,6.542437E1,2.750044E1,1.5189773E1,5.3592323E1,1.18320465E1,4.859196E0,1.0330576E1,4.8211338E1,5.380986E0,5.8776937E0,5.9543524E0],"tree_param":{"num_deleted":"0","num_feature":"6","num_nodes":"13","size_leaf_vector":"0"}},{"base_weights":[2.381248E-1,7.154098E-1,-1.0097445E0,-8.874382E-1,9.216065E-1,-1.0784794E0,3.3123237E-1,-1.8241161E-1,-9.694899E-1,9.8103976E-1,1.1690525E-1],"categories":[],"categories_nodes":[],"categories_segments":[],"categories_sizes":[],"default_left":[1,1,1,1,1,0,0,0,0,0,0],"id":23,"left_children":[1,3,5,7,9,-1,-1,-1,-1,-1,-1],"loss_changes":[6.151819E1,2.5414234E1,2.9984589E0,3.433318E-1,3.0623589E0,0E0,0E0,0E0,0E0,0E0,0E0],"parents":[2147483647,0,0,1,1,2,2,3,3,4,4],"right_children":[2,4,6,8,10,-1,-1,-1,-1,-1,-1],"split_conditions":[4.775E0,1.12165E2,1.13185E2,4.125E0,3.395E0,-1.07847944E-1,3.3123236E-2,-1.8241161E-2,-9.694899E-2,9.810398E-2,1.1690525E-2],"split_indices":[3,5,5,3,4,0,0,0,0,0,0],"split_type":[0,0,0,0,0,0,0,0,0,0,0],"sum_hessian":[1.0107672E2,7.342126E1,2.7655466E1,7.99205E0,6.542921E1,2.6493244E1,1.1622229E0,1.1691651E0,6.822885E0,6.0725063E1,4.704143E0],"tree_param":{"num_deleted":"0","num_feature":"6","num_nodes":"11","size_leaf_vector":"0"}},{"base_weights":[2.3069789E-1,6.9471455E-1,-9.847905E-1,-8.653259E-1,8.9709294E-1,-1.0554323E0,3.168678E-1,-1.737966E-1,-9.508203E-1,3.948493E-1,1.0121073E0],"categories":[],"categories_nodes":[],"categories_segments":[],"categories_sizes":[],"default_left":[1,1,1,1,1,0,0,0,0,0,0],"id":24,"left_children":[1,3,5,7,9,-1,-1,-1,-1,-1,-1],"loss_changes":[5.4202423E1,2.26428E1,2.7830906E0,3.3504438E-1,3.1701126E0,0E0,0E0,0E0,0E0,0E0,0E0],"parents":[2147483647,0,0,1,1,2,2,3,3,4,4],"right_children":[2,4,6,8,10,-1,-1,-1,-1,-1,-1],"split_conditions":[4.775E0,1.12165E2,1.13185E2,4.125E0,1.12715E2,-1.0554323E-1,3.168678E-2,-1.737966E-2,-9.508204E-2,3.948493E-2,1.0121073E-1],"split_indices":[3,5,5,3,5,0,0,0,0,0,0],"split_type":[0,0,0,0,0,0,0,0,0,0,0],"sum_hessian":[9.3889404E1,6.8259544E1,2.5629856E1,7.46208E0,6.0797466E1,2.4489935E1,1.1399205E0,1.1547357E0,6.3073444E0,1.215447E1,4.8642998E1],"tree_param":{"num_deleted":"0","num_feature":"6","num_nodes":"11","size_leaf_vector":"0"}},{"base_weights":[2.238301E-1,7.0616543E-1,-8.878933E-1,8.362796E-1,-1.915026E-1,-3.2980165E-1,-1.074773E0,9.517086E-1,4.494644E-1,5.276353E-1,-7.305281E-1,5.696756E-1,-6.31349E-1],"categories":[],"categories_nodes":[],"categories_segments":[],"categories_sizes":[],"default_left":[1,1,1,1,1,1,0,0,0,0,0,0,0],"id":25,"left_children":[1,3,5,7,9,11,-1,-1,-1,-1,-1,-1,-1],"loss_changes":[4.7942448E1,7.412903E0,2.4763832E0,2.0021248E0,3.7481055E0,2.5977623E0,0E0,0E0,0E0,0E0,0E0,0E0,0E0],"parents":[2147483647,0,0,1,1,2,2,3,3,4,4,5,5],"right_children":[2,4,6,8,10,12,-1,-1,-1,-1,-1,-1,-1],"split_conditions":[4.6949997E0,3.375E0,4.9449997E0,3.205E0,4.1099997E0,3.0949998E0,-1.074773E-1,9.517086E-2,4.4946443E-2,5.276353E-2,-7.3052816E-2,5.6967564E-2,-6.31349E-2],"split_indices":[3,4,3,4,3,4,0,0,0,0,0,0,0],"split_type":[0,0,0,0,0,0,0,0,0,0,0,0,0],"sum_hessian":[8.723829E1,6.109587E1,2.614242E1,5.3421047E1,7.6748223E0,7.2515106E0,1.889091E1,4.0018734E1,1.3402315E1,3.2971196E0,4.3777027E0,1.5974241E0,5.6540866E0],"tree_param":{"num_deleted":"0","num_feature":"6","num_nodes":"13","size_leaf_vector":"0"}},{"base_weights":[2.1457098E-1,-6.3761157E-1,7.937812E-1,-9.704146E-1,-9.889015E-2,9.6262264E-1,3.704586E-1,3.482778E-1,-8.891954E-1,8.47197E-1,-7.634044E-2],"categories":[],"categories_nodes":[],"categories_segments":[],"categories_sizes":[],"default_left":[1,1,1,0,1,0,1,0,0,0,0],"id":26,"left_children":[1,3,5,-1,7,-1,9,-1,-1,-1,-1],"loss_changes":[4.1552612E1,6.036497E0,3.2138233E0,0E0,5.319088E0,0E0,3.4448318E0,0E0,0E0,0E0,0E0],"parents":[2147483647,0,0,1,1,2,2,4,4,6,6],"right_children":[2,4,6,-1,8,-1,10,-1,-1,-1,-1],"split_conditions":[1.12665E2,1.12165E2,1.04145004E2,-9.704146E-2,1.04065E2,9.626227E-2,1.0395E2,3.482778E-2,-8.891954E-2,8.47197E-2,-7.6340437E-3],"split_indices":[5,5,1,0,2,0,2,0,0,0,0],"split_type":[0,0,0,0,0,0,0,0,0,0,0],"sum_hessian":[8.215859E1,3.320451E1,4.895408E1,2.0029602E1,1.3174908E1,3.4085266E1,1.48688135E1,8.771282E0,4.403626E0,6.759849E0,8.108964E0],"tree_param":{"num_deleted":"0","num_feature":"6","num_nodes":"11","size_leaf_vector":"0"}},{"base_weights":[2.064321E-1,7.4765456E-1,-7.2632265E-1,8.668089E-1,1.587184E-1,-2.1390352E-1,-1.0604005E0,9.1667247E-1,4.4564134E-1,6.805464E-1,-2.2648562E-1,3.3018115E-1,-6.3356286E-1],"categories":[],"categories_nodes":[],"categories_segments":[],"categories_sizes":[],"default_left":[1,1,1,1,1,1,0,0,0,0,0,0,0],"id":27,"left_children":[1,3,5,7,9,11,-1,-1,-1,-1,-1,-1,-1],"loss_changes":[4.0035038E1,3.370926E0,4.777278E0,4.6008492E-1,2.0913556E0,3.129357E0,0E0,0E0,0E0,0E0,0E0,0E0,0E0],"parents":[2147483647,0,0,1,1,2,2,3,3,4,4,5,5],"right_children":[2,4,6,8,10,12,-1,-1,-1,-1,-1,-1,-1],"split_conditions":[4.545E0,1.04165E2,4.9449997E0,4.4049997E0,4.115E0,1.03975006E2,-1.0604005E-1,9.166725E-2,4.4564135E-2,6.805464E-2,-2.2648564E-2,3.3018116E-2,-6.335629E-2],"split_indices":[3,2,3,3,3,2,0,0,0,0,0,0,0],"split_type":[0,0,0,0,0,0,0,0,0,0,0,0,0],"sum_hessian":[7.722865E1,4.8997025E1,2.8231632E1,4.0359596E1,8.637427E0,1.1789227E1,1.6442406E1,3.5035152E1,5.3244433E0,3.3425827E0,5.294845E0,5.226426E0,6.5628E0],"tree_param":{"num_deleted":"0","num_feature":"6","num_nodes":"13","size_leaf_vector":"0"}},{"base_weights":[1.9727801E-1,-6.1796856E-1,7.6387113E-1,2.214681E-1,-8.117754E-1,8.951236E-1,2.2856331E-1,-6.978189E-1,7.0266193E-1,3.3432734E-1,-8.901735E-1,9.2479306E-1,3.6593148E-1,7.537525E-1,-2.5841942E-1],"categories":[],"categories_nodes":[],"categories_segments":[],"categories_sizes":[],"default_left":[1,1,1,1,1,1,1,0,0,0,0,0,0,0,0],"id":28,"left_children":[1,3,5,7,9,11,13,-1,-1,-1,-1,-1,-1,-1,-1],"loss_changes":[3.4708553E1,5.213957E0,2.8991852E0,3.405361E0,2.5757103E0,2.1321869E-1,2.7629697E0,0E0,0E0,0E0,0E0,0E0,0E0,0E0,0E0],"parents":[2147483647,0,0,1,1,2,2,3,3,4,4,5,5,6,6],"right_children":[2,4,6,8,10,12,14,-1,-1,-1,-1,-1,-1,-1,-1],"split_conditions":[1.12665E2,3.0949998E0,3.295E0,1.1216E2,1.03575E2,1.04305E2,1.03975006E2,-6.978189E-2,7.0266195E-2,3.3432733E-2,-8.9017354E-2,9.247931E-2,3.659315E-2,7.537525E-2,-2.5841942E-2],"split_indices":[5,4,4,5,2,2,2,0,0,0,0,0,0,0,0],"split_type":[0,0,0,0,0,0,0,0,0,0,0,0,0,0,0],"sum_hessian":[7.311893E1,2.9943636E1,4.317529E1,5.589795E0,2.4353842E1,3.4133827E1,9.041463E0,1.7659292E0,3.823866E0,1.3502371E0,2.3003605E1,3.1613827E1,2.5200014E0,4.0865254E0,4.9549375E0],"tree_param":{"num_deleted":"0","num_feature":"6","num_nodes":"15","size_leaf_vector":"0"}},{"base_weights":[1.9127862E-1,6.07094E-1,-9.244168E-1,7.7597785E-1,-3.5459206E-2,9.6821286E-2,-9.9311674E-1,8.871175E-1,3.5657194E-1,6.308842E-1,-3.7293705E-1],"categories":[],"categories_nodes":[],"categories_segments":[],"categories_sizes":[],"default_left":[1,1,1,1,1,0,0,0,0,0,0],"id":29,"left_children":[1,3,5,7,9,-1,-1,-1,-1,-1,-1],"loss_changes":[3.294184E1,5.6107693E0,1.4535103E0,1.584816E0,2.8583856E0,0E0,0E0,0E0,0E0,0E0,0E0],"parents":[2147483647,0,0,1,1,2,2,3,3,4,4],"right_children":[2,4,6,8,10,-1,-1,-1,-1,-1,-1],"split_conditions":[4.775E0,1.04165E2,1.03774994E2,4.4049997E0,4.125E0,9.682129E-3,-9.931167E-2,8.871175E-2,3.5657194E-2,6.308842E-2,-3.7293706E-2],"split_indices":[3,2,1,3,3,0,0,0,0,0,0],"split_type":[0,0,0,0,0,0,0,0,0,0,0],"sum_hessian":[6.879739E1,5.0450535E1,1.8346859E1,3.9785866E1,1.0664668E1,1.1306212E0,1.7216238E1,3.0569881E1,9.215985E0,3.293099E0,7.3715687E0],"tree_param":{"num_deleted":"0","num_feature":"6","num_nodes":"11","size_leaf_vector":"0"}},{"base_weights":[1.8243615E-1,-5.9526426E-1,7.350567E-1,3.1199884E-1,-7.772575E-1,9.2491937E-1,2.9838252E-1,-5.55719E-1,6.663507E-1,2.0855248E-1,-8.372037E-1,7.7904266E-1,-8.513204E-2],"categories":[],"categories_nodes":[],"categories_segments":[],"categories_sizes":[],"default_left":[1,1,1,1,1,0,1,0,0,0,0,0,0],"id":30,"left_children":[1,3,5,7,9,-1,11,-1,-1,-1,-1,-1,-1],"loss_changes":[2.896855E1,4.887145E0,2.9787045E0,2.0348241E0,1.5761213E0,0E0,2.5313833E0,0E0,0E0,0E0,0E0,0E0,0E0],"parents":[2147483647,0,0,1,1,2,2,3,3,4,4,6,6],"right_children":[2,4,6,8,10,-1,12,-1,-1,-1,-1,-1,-1],"split_conditions":[1.12665E2,1.03875E2,1.04145004E2,1.1216E2,1.03585E2,9.249194E-2,1.0395E2,-5.5571903E-2,6.663507E-2,2.0855248E-2,-8.372037E-2,7.790427E-2,-8.513204E-3],"split_indices":[5,1,1,5,2,0,2,0,0,0,0,0,0],"split_type":[0,0,0,0,0,0,0,0,0,0,0,0,0],"sum_hessian":[6.538616E1,2.7129614E1,3.825655E1,4.4134707E0,2.2716145E1,2.5884197E1,1.2372353E1,1.1149565E0,3.2985141E0,1.1600605E0,2.1556084E1,5.033067E0,7.3392854E0],"tree_param":{"num_deleted":"0","num_feature":"6","num_nodes":"13","size_leaf_vector":"0"}},{"base_weights":[1.7612982E-1,6.034199E-1,-3.2907018E-1,7.1867585E-1,-9.208903E-2,4.0174228E-1,-5.086871E-1,7.9310375E-1,-9.877161E-2,2.7855843E-1,-4.573077E-1,7.9163224E-1,-2.4584157E-2,3.2741573E-1,-5.9204155E-1],"categories":[],"categories_nodes":[],"categories_segments":[],"categories_sizes":[],"default_left":[1,1,1,1,1,1,1,0,0,0,0,0,0,0,0],"id":31,"left_children":[1,3,5,7,9,11,13,-1,-1,-1,-1,-1,-1,-1,-1],"loss_changes":[1.376861E1,2.8245802E0,4.0704794E0,1.8811998E0,9.0955484E-1,1.0781788E0,1.8722658E0,0E0,0E0,0E0,0E0,0E0,0E0,0E0,0E0],"parents":[2147483647,0,0,1,1,2,2,3,3,4,4,5,5,6,6],"right_children":[2,4,6,8,10,12,14,-1,-1,-1,-1,-1,-1,-1,-1],"split_conditions":[3.205E0,1.04365005E2,1.03884995E2,1.04265E2,3.0749998E0,1.03815E2,1.03665E2,7.931038E-2,-9.877161E-3,2.7855843E-2,-4.573077E-2,7.916322E-2,-2.4584157E-3,3.2741573E-2,-5.9204157E-2],"split_indices":[4,1,1,2,4,2,2,0,0,0,0,0,0,0,0],"split_type":[0,0,0,0,0,0,0,0,0,0,0,0,0,0,0],"sum_hessian":[6.186299E1,3.3410503E1,2.8452486E1,2.8632393E1,4.7781124E0,5.3693585E0,2.3083128E1,2.6270283E1,2.3621087E0,2.4891975E0,2.288915E0,2.3569653E0,3.0123932E0,1.8271873E0,2.1255941E1],"tree_param":{"num_deleted":"0","num_feature":"6","num_nodes":"15","size_leaf_vector":"0"}},{"base_weights":[1.6617325E-1,6.7183363E-1,-6.833707E-1,7.853704E-1,-3.86955E-2,-1.8691078E-1,-1.0334691E0,9.3566567E-1,5.162088E-1,4.7049755E-1,-4.9027953E-1,7.428957E-1,-4.8958504E-1],"categories":[],"categories_nodes":[],"categories_segments":[],"categories_sizes":[],"default_left":[1,1,1,1,1,1,0,0,0,0,0,0,0],"id":32,"left_children":[1,3,5,7,9,11,-1,-1,-1,-1,-1,-1,-1],"loss_changes":[2.6609297E1,3.1495037E0,3.840828E0,8.675213E-1,1.6747422E0,3.4085102E0,0E0,0E0,0E0,0E0,0E0,0E0,0E0],"parents":[2147483647,0,0,1,1,2,2,3,3,4,4,5,5],"right_children":[2,4,6,8,10,12,-1,-1,-1,-1,-1,-1,-1],"split_conditions":[4.545E0,3.375E0,4.9449997E0,4.215E0,1.0405E2,3.0549998E0,-1.0334691E-1,9.356657E-2,5.1620882E-2,4.7049757E-2,-4.9027953E-2,7.4289575E-2,-4.8958506E-2],"split_indices":[3,4,3,3,2,4,0,0,0,0,0,0,0],"split_type":[0,0,0,0,0,0,0,0,0,0,0,0,0],"sum_hessian":[5.9873745E1,3.7664497E1,2.2209248E1,3.23844E1,5.280096E0,9.819088E0,1.239016E1,1.9191801E1,1.3192599E1,2.4620628E0,2.8180332E0,2.0542014E0,7.764887E0],"tree_param":{"num_deleted":"0","num_feature":"6","num_nodes":"13","size_leaf_vector":"0"}},{"base_weights":[1.5922873E-1,-6.3985926E-1,6.554576E-1,2.6744476E-1,-8.259256E-1,9.0930796E-1,3.1671005E-1,-5.315811E-1,6.427247E-1,-9.175368E-1,-4.4921222E-1,4.3081495E-1,9.572856E-1,-3.800047E-1,6.2712216E-1],"categories":[],"categories_nodes":[],"categories_segments":[],"categories_sizes":[],"default_left":[1,1,1,1,1,1,1,0,0,0,0,0,0,0,0],"id":33,"left_children":[1,3,5,7,9,11,13,-1,-1,-1,-1,-1,-1,-1,-1],"loss_changes":[2.3328646E1,4.04278E0,2.8193235E0,1.7234173E0,2.446127E-1,4.951477E-2,3.9178262E0,0E0,0E0,0E0,0E0,0E0,0E0,0E0,0E0],"parents":[2147483647,0,0,1,1,2,2,3,3,4,4,5,5,6,6],"right_children":[2,4,6,8,10,12,14,-1,-1,-1,-1,-1,-1,-1,-1],"split_conditions":[1.12535E2,1.03875E2,1.03945E2,1.1216E2,1.12354996E2,1.71625E2,1.12895004E2,-5.3158112E-2,6.427247E-2,-9.1753684E-2,-4.4921223E-2,4.3081496E-2,9.572856E-2,-3.8000472E-2,6.2712215E-2],"split_indices":[5,1,2,5,5,0,5,0,0,0,0,0,0,0,0],"split_type":[0,0,0,0,0,0,0,0,0,0,0,0,0,0,0],"sum_hessian":[5.677423E1,2.1639017E1,3.5135216E1,3.6080313E0,1.8030985E1,1.9121578E1,1.6013638E1,1.0199393E0,2.5880919E0,1.3349053E1,4.681932E0,2.6520014E0,1.6469578E1,4.866551E0,1.1147086E1],"tree_param":{"num_deleted":"0","num_feature":"6","num_nodes":"15","size_leaf_vector":"0"}},{"base_weights":[1.527569E-1,6.3796014E-1,-6.610937E-1,-6.343889E-1,8.2923067E-1,-9.0442157E-1,2.9013824E-1,-7.982347E-2,-8.144541E-1,2.8135774E-1,9.6072143E-1,-8.404995E-2,-9.5577586E-1,7.00327E-1,-4.1378242E-1],"categories":[],"categories_nodes":[],"categories_segments":[],"categories_sizes":[],"default_left":[1,1,1,1,1,1,1,0,0,0,0,0,0,0,0],"id":34,"left_children":[1,3,5,7,9,11,13,-1,-1,-1,-1,-1,-1,-1,-1],"loss_changes":[2.2014603E1,8.986974E0,5.1034117E0,4.4525957E-1,1.9382095E0,6.315546E-1,1.7385166E0,0E0,0E0,0E0,0E0,0E0,0E0,0E0,0E0],"parents":[2147483647,0,0,1,1,2,2,3,3,4,4,5,5,6,6],"right_children":[2,4,6,8,10,12,14,-1,-1,-1,-1,-1,-1,-1,-1],"split_conditions":[4.545E0,1.12235E2,1.12994995E2,1.04119995E2,1.12665E2,4.5950003E0,1.04205E2,-7.982347E-3,-8.144541E-2,2.8135775E-2,9.6072145E-2,-8.404995E-3,-9.557759E-2,7.00327E-2,-4.137824E-2],"split_indices":[3,5,5,1,5,3,1,0,0,0,0,0,0,0,0],"split_type":[0,0,0,0,0,0,0,0,0,0,0,0,0,0,0],"sum_hessian":[5.3681652E1,3.376668E1,1.991497E1,4.1099834E0,2.9656696E1,1.5897544E1,4.017427E0,1.3611649E0,2.7488186E0,6.3477488E0,2.3308947E1,1.0918705E0,1.4805674E1,2.5415308E0,1.475896E0],"tree_param":{"num_deleted":"0","num_feature":"6","num_nodes":"15","size_leaf_vector":"0"}},{"base_weights":[1.4667821E-1,-5.317942E-1,6.5974593E-1,-8.8739455E-1,-8.734034E-2,8.7565243E-1,2.2245064E-1,1.9884607E-1,-1.0095267E0,5.0196207E-1,9.5257604E-1,4.414325E-1,-7.335457E-1],"categories":[],"categories_nodes":[],"categories_segments":[],"categories_sizes":[],"default_left":[1,1,1,0,1,1,1,0,0,0,0,0,0],"id":35,"left_children":[1,3,5,-1,7,9,11,-1,-1,-1,-1,-1,-1],"loss_changes":[1.8207146E1,3.5009193E0,2.6050568E0,0E0,3.1493812E0,8.273411E-2,2.656447E0,0E0,0E0,0E0,0E0,0E0,0E0],"parents":[2147483647,0,0,1,1,2,2,4,4,5,5,6,6],"right_children":[2,4,6,-1,8,10,12,-1,-1,-1,-1,-1,-1],"split_conditions":[1.12665E2,1.12165E2,1.04145004E2,-8.8739455E-2,1.04235E2,1.12955E2,3.395E0,1.9884607E-2,-1.0095268E-1,5.0196208E-2,9.52576E-2,4.4143252E-2,-7.335457E-2],"split_indices":[5,5,1,0,2,5,4,0,0,0,0,0,0],"split_type":[0,0,0,0,0,0,0,0,0,0,0,0,0],"sum_hessian":[5.0296116E1,2.1641392E1,2.8654724E1,1.1468797E1,1.0172596E1,1.8512226E1,1.01425E1,8.361964E0,1.8106319E0,4.4448524E0,1.4067373E1,8.690166E0,1.4523331E0],"tree_param":{"num_deleted":"0","num_feature":"6","num_nodes":"13","size_leaf_vector":"0"}},{"base_weights":[1.382453E-1,5.125764E-1,-8.722468E-1,6.865052E-1,-6.292742E-2,-2.65334E-1,-1.0102574E0,8.1245387E-1,2.597634E-1,5.671709E-1,-3.6221924E-1,1.4936309E-1,-5.331851E-1],"categories":[],"categories_nodes":[],"categories_segments":[],"categories_sizes":[],"default_left":[1,1,1,1,1,1,0,0,0,0,0,0,0],"id":36,"left_children":[1,3,5,7,9,11,-1,-1,-1,-1,-1,-1,-1],"loss_changes":[1.8889647E1,3.6673975E0,8.6685467E-1,1.2878675E0,1.9628426E0,5.091151E-1,0E0,0E0,0E0,0E0,0E0,0E0,0E0],"parents":[2147483647,0,0,1,1,2,2,3,3,4,4,5,5],"right_children":[2,4,6,8,10,12,-1,-1,-1,-1,-1,-1,-1],"split_conditions":[4.775E0,1.04165E2,4.9449997E0,4.4049997E0,4.125E0,1.04115005E2,-1.0102574E-1,8.1245385E-2,2.597634E-2,5.6717094E-2,-3.6221925E-2,1.4936308E-2,-5.331851E-2],"split_indices":[3,2,3,3,3,1,0,0,0,0,0,0,0],"split_type":[0,0,0,0,0,0,0,0,0,0,0,0,0],"sum_hessian":[4.7756462E1,3.520698E1,1.2549482E1,2.688801E1,8.318973E0,2.8664763E0,9.683005E0,2.0062813E1,6.8251967E0,2.3907304E0,5.9282417E0,1.2984824E0,1.567994E0],"tree_param":{"num_deleted":"0","num_feature":"6","num_nodes":"13","size_leaf_vector":"0"}},{"base_weights":[1.2994893E-1,-5.196254E-1,6.312861E-1,2.620915E-1,-6.892061E-1,8.552818E-1,2.018147E-1,7.694558E-1,-3.2693693E-1,-8.228002E-1,-1.6071174E-1,3.2683524E-1,8.9861476E-1,7.483263E-1,-8.2596995E-2],"categories":[],"categories_nodes":[],"categories_segments":[],"categories_sizes":[],"default_left":[1,1,1,1,1,1,1,0,0,0,0,0,0,0,0],"id":37,"left_children":[1,3,5,7,9,11,13,-1,-1,-1,-1,-1,-1,-1,-1],"loss_changes":[1.5528364E1,2.9486551E0,2.4051065E0,1.580475E0,1.0986633E0,1.0249424E-1,1.6929048E0,0E0,0E0,0E0,0E0,0E0,0E0,0E0,0E0],"parents":[2147483647,0,0,1,1,2,2,3,3,4,4,5,5,6,6],"right_children":[2,4,6,8,10,12,14,-1,-1,-1,-1,-1,-1,-1,-1],"split_conditions":[1.12665E2,1.03875E2,1.04145004E2,1.0381E2,1.1245E2,1.7157501E2,1.03854996E2,7.694558E-2,-3.2693695E-2,-8.2280025E-2,-1.6071174E-2,3.2683525E-2,8.9861475E-2,7.483263E-2,-8.2597E-3],"split_indices":[5,1,1,2,5,0,2,0,0,0,0,0,0,0,0],"split_type":[0,0,0,0,0,0,0,0,0,0,0,0,0,0,0],"sum_hessian":[4.5676067E1,1.988061E1,2.5795458E1,3.4467206E0,1.643389E1,1.6301664E1,9.4937935E0,1.6871592E0,1.7595614E0,1.26734E1,3.7604887E0,1.8828379E0,1.4418827E1,2.6912608E0,6.802533E0],"tree_param":{"num_deleted":"0","num_feature":"6","num_nodes":"15","size_leaf_vector":"0"}},{"base_weights":[1.2618871E-1,4.8174253E-1,-8.518173E-1,7.993327E-1,2.456397E-2,-2.514332E-1,-9.927278E-1,8.668664E-1,3.8151417E-2,6.394751E-1,-3.4525496E-1,1.312212E-1,-5.390926E-1],"categories":[],"categories_nodes":[],"categories_segments":[],"categories_sizes":[],"default_left":[1,1,1,1,1,1,0,0,0,0,0,0,0],"id":38,"left_children":[1,3,5,7,9,11,-1,-1,-1,-1,-1,-1,-1],"loss_changes":[1.5906213E1,4.818267E0,7.8611565E-1,9.7600937E-1,3.5613914E0,4.743072E-1,0E0,0E0,0E0,0E0,0E0,0E0,0E0],"parents":[2147483647,0,0,1,1,2,2,3,3,4,4,5,5],"right_children":[2,4,6,8,10,12,-1,-1,-1,-1,-1,-1,-1],"split_conditions":[4.775E0,3.205E0,4.9449997E0,1.04274994E2,4.125E0,3.275E0,-9.927278E-2,8.668664E-2,3.8151417E-3,6.394751E-2,-3.4525495E-2,1.3122121E-2,-5.390926E-2],"split_indices":[3,4,3,2,3,4,0,0,0,0,0,0,0],"split_type":[0,0,0,0,0,0,0,0,0,0,0,0,0],"sum_hessian":[4.3562416E1,3.231994E1,1.124248E1,1.8629854E1,1.3690083E1,2.666318E0,8.576162E0,1.6984138E1,1.6457161E0,4.8675222E0,8.82256E0,1.3776081E0,1.2887099E0],"tree_param":{"num_deleted":"0","num_feature":"6","num_nodes":"13","size_leaf_vector":"0"}},{"base_weights":[1.18879676E-1,4.5630038E-1,-8.2893807E-1,8.552959E-1,2.0570743E-1,-2.4122955E-1,-9.7411233E-1,8.880371E-1,2.6195908E-1,7.3999083E-1,-9.085254E-2,1.423032E-1,-4.890472E-1],"categories":[],"categories_nodes":[],"categories_segments":[],"categories_sizes":[],"default_left":[1,1,1,1,1,1,0,0,0,0,0,0,0],"id":39,"left_children":[1,3,5,7,9,11,-1,-1,-1,-1,-1,-1,-1],"loss_changes":[1.3994501E1,3.0278926E0,7.4898195E-1,1.3561249E-3,3.394362E0,4.130532E-1,0E0,0E0,0E0,0E0,0E0,0E0,0E0],"parents":[2147483647,0,0,1,1,2,2,3,3,4,4,5,5],"right_children":[2,4,6,8,10,12,-1,-1,-1,-1,-1,-1,-1],"split_conditions":[4.775E0,4.115E0,4.9449997E0,1.72435E2,1.03935E2,1.04115005E2,-9.741124E-2,8.880371E-2,2.6195908E-2,7.3999085E-2,-9.085255E-3,1.423032E-2,-4.890472E-2],"split_indices":[3,3,3,0,1,1,0,0,0,0,0,0,0],"split_type":[0,0,0,0,0,0,0,0,0,0,0,0,0],"sum_hessian":[4.1575638E1,3.1042992E1,1.0532647E1,1.104461E1,1.999838E1,2.6136146E0,7.919033E0,9.996316E0,1.0482941E0,6.6044803E0,1.3393901E1,1.1930209E0,1.4205935E0],"tree_param":{"num_deleted":"0","num_feature":"6","num_nodes":"13","size_leaf_vector":"0"}},{"base_weights":[1.12814486E-1,-4.710238E-1,6.3734454E-1,2.5989616E-1,-6.722976E-1,7.228414E-1,-6.9621205E-2,-5.5102104E-1,6.048654E-1,2.264674E-1,-7.480472E-1,2.9063842E-1,8.599493E-1,3.037084E-1,-4.205659E-1],"categories":[],"categories_nodes":[],"categories_segments":[],"categories_sizes":[],"default_left":[1,1,1,1,1,1,1,0,0,0,0,0,0,0,0],"id":40,"left_children":[1,3,5,7,9,11,13,-1,-1,-1,-1,-1,-1,-1,-1],"loss_changes":[1.2831391E1,3.108193E0,1.3788357E0,1.7394181E0,1.252811E0,9.172201E-1,5.5792135E-1,0E0,0E0,0E0,0E0,0E0,0E0,0E0,0E0],"parents":[2147483647,0,0,1,1,2,2,3,3,4,4,5,5,6,6],"right_children":[2,4,6,8,10,12,14,-1,-1,-1,-1,-1,-1,-1,-1],"split_conditions":[1.12715E2,3.0949998E0,3.395E0,1.1216E2,1.03585E2,1.12985E2,1.04085E2,-5.5102106E-2,6.0486536E-2,2.264674E-2,-7.4804716E-2,2.9063841E-2,8.599493E-2,3.037084E-2,-4.205659E-2],"split_indices":[5,4,4,5,2,5,2,0,0,0,0,0,0,0,0],"split_type":[0,0,0,0,0,0,0,0,0,0,0,0,0,0,0],"sum_hessian":[3.99194E1,1.893994E1,2.0979458E1,4.0265145E0,1.4913425E1,1.8696003E1,2.2834554E0,1.0234326E0,3.003082E0,1.0045694E0,1.3908856E1,5.2539244E0,1.3442078E1,1.1716595E0,1.1117959E0],"tree_param":{"num_deleted":"0","num_feature":"6","num_nodes":"15","size_leaf_vector":"0"}},{"base_weights":[1.0823041E-1,-5.284947E-1,5.440679E-1,2.6143438E-1,-7.068452E-1,6.982365E-1,-3.6236796E-1,-1.3228135E-1,4.6434715E-1,-5.5308137E-2,-8.3442384E-1,8.0660427E-1,2.7631566E-1,-7.6873803E-1,2.6697102E-1],"categories":[],"categories_nodes":[],"categories_segments":[],"categories_sizes":[],"default_left":[1,1,1,1,1,1,1,0,0,0,0,0,0,0,0],"id":41,"left_children":[1,3,5,7,9,11,13,-1,-1,-1,-1,-1,-1,-1,-1],"loss_changes":[1.1149019E1,2.496923E0,3.5688205E0,3.6124325E-1,1.0891871E0,7.199383E-1,1.2556697E0,0E0,0E0,0E0,0E0,0E0,0E0,0E0,0E0],"parents":[2147483647,0,0,1,1,2,2,3,3,4,4,5,5,6,6],"right_children":[2,4,6,8,10,12,14,-1,-1,-1,-1,-1,-1,-1,-1],"split_conditions":[1.12545E2,1.03875E2,3.395E0,1.7186E2,3.085E0,1.04274994E2,1.13225E2,-1.3228135E-2,4.6434715E-2,-5.5308137E-3,-8.344238E-2,8.0660425E-2,2.7631566E-2,-7.68738E-2,2.6697103E-2],"split_indices":[5,1,4,0,4,1,5,0,0,0,0,0,0,0,0],"split_type":[0,0,0,0,0,0,0,0,0,0,0,0,0,0,0],"sum_hessian":[3.8139248E1,1.5411554E1,2.2727694E1,2.7528973E0,1.2658657E1,1.9620317E1,3.1073768E0,1.054642E0,1.6982554E0,2.307566E0,1.0351091E1,1.4885362E1,4.7349553E0,1.7535758E0,1.3538009E0],"tree_param":{"num_deleted":"0","num_feature":"6","num_nodes":"15","size_leaf_vector":"0"}},{"base_weights":[1.0235075E-1,-3.4638214E-1,6.7358035E-1,3.9255854E-1,-5.4011816E-1,7.603829E-1,2.6512725E-2,7.700575E-1,-7.017586E-2,-6.2808275E-2,-8.115213E-1,8.6164904E-1,1.19135335E-1],"categories":[],"categories_nodes":[],"categories_segments":[],"categories_sizes":[],"default_left":[1,1,1,1,1,1,0,0,0,0,0,0,0],"id":42,"left_children":[1,3,5,7,9,11,-1,-1,-1,-1,-1,-1,-1],"loss_changes":[9.825527E0,3.306883E0,9.23625E-1,9.3961585E-1,2.222334E0,8.5708237E-1,0E0,0E0,0E0,0E0,0E0,0E0,0E0],"parents":[2147483647,0,0,1,1,2,2,3,3,4,4,5,5],"right_children":[2,4,6,8,10,12,-1,-1,-1,-1,-1,-1,-1],"split_conditions":[1.12884995E2,1.03884995E2,3.395E0,1.0381E2,3.1950002E0,1.04380005E2,2.6512726E-3,7.700575E-2,-7.017586E-3,-6.280828E-3,-8.115213E-2,8.616491E-2,1.1913533E-2],"split_indices":[5,1,4,2,4,1,0,0,0,0,0,0,0],"split_type":[0,0,0,0,0,0,0,0,0,0,0,0,0],"sum_hessian":[3.6421406E1,2.0618242E1,1.58031645E1,4.0696564E0,1.6548586E1,1.3779551E1,2.023614E0,1.8754873E0,2.194169E0,6.4451256E0,1.0103459E1,1.1603424E1,2.1761262E0],"tree_param":{"num_deleted":"0","num_feature":"6","num_nodes":"13","size_leaf_vector":"0"}},{"base_weights":[9.870545E-2,4.5453605E-1,-2.7648935E-1,-2.7050497E-2,6.4582306E-1,2.778267E-1,-4.2044505E-1,4.0454507E-1,-3.4510037E-1,7.657841E-1,-2.0390286E-1,6.7198867E-1,-1.3962774E-1,2.87896E-1,-4.9576533E-1],"categories":[],"categories_nodes":[],"categories_segments":[],"categories_sizes":[],"default_left":[1,1,1,1,1,1,1,0,0,0,0,0,0,0,0],"id":43,"left_children":[1,3,5,7,9,11,13,-1,-1,-1,-1,-1,-1,-1,-1],"loss_changes":[4.9286942E0,1.7532883E0,1.5637969E0,1.0066662E0,1.5349331E0,8.080333E-1,9.3196416E-1,0E0,0E0,0E0,0E0,0E0,0E0,0E0,0E0],"parents":[2147483647,0,0,1,1,2,2,3,3,4,4,5,5,6,6],"right_children":[2,4,6,8,10,12,14,-1,-1,-1,-1,-1,-1,-1,-1],"split_conditions":[3.205E0,1.71795E2,1.03884995E2,1.04015E2,1.04265E2,1.03815E2,1.03665E2,4.0454507E-2,-3.451004E-2,7.657841E-2,-2.0390285E-2,6.7198865E-2,-1.3962775E-2,2.87896E-2,-4.9576532E-2],"split_indices":[4,0,1,1,2,2,2,0,0,0,0,0,0,0,0],"split_type":[0,0,0,0,0,0,0,0,0,0,0,0,0,0,0],"sum_hessian":[3.4976112E1,1.7842764E1,1.7133348E1,5.316489E0,1.2526276E1,3.3404937E0,1.3792855E1,2.14023E0,3.1762593E0,1.1063202E1,1.4630738E0,1.4045671E0,1.9359266E0,1.0544171E0,1.2738438E1],"tree_param":{"num_deleted":"0","num_feature":"6","num_nodes":"15","size_leaf_vector":"0"}},{"base_weights":[9.4272554E-2,5.60497E-1,-1.574474E-1,4.2591978E-2,6.524155E-1,8.215464E-2,-5.9500915E-1,7.435059E-1,-6.600047E-2,4.7423643E-1,-8.8964865E-2,-7.678441E-1,-4.0900856E-2],"categories":[],"categories_nodes":[],"categories_segments":[],"categories_sizes":[],"default_left":[1,1,1,0,1,1,1,0,0,0,0,0,0],"id":44,"left_children":[1,3,5,-1,7,9,11,-1,-1,-1,-1,-1,-1],"loss_changes":[4.2103333E0,5.689039E-1,2.5220547E0,0E0,7.4111366E-1,1.1238389E0,7.79583E-1,0E0,0E0,0E0,0E0,0E0,0E0],"parents":[2147483647,0,0,1,1,2,2,4,4,5,5,6,6],"right_children":[2,4,6,-1,8,10,12,-1,-1,-1,-1,-1,-1],"split_conditions":[3.0949998E0,1.71655E2,1.04165E2,4.259198E-3,1.04274994E2,1.03884995E2,1.7211499E2,7.435059E-2,-6.600047E-3,4.7423642E-2,-8.896487E-3,-7.678441E-2,-4.0900856E-3],"split_indices":[4,0,2,0,2,1,0,0,0,0,0,0,0],"split_type":[0,0,0,0,0,0,0,0,0,0,0,0,0],"sum_hessian":[3.412402E1,1.1534206E1,2.2589811E1,1.959121E0,9.575086E0,1.5121665E1,7.4681454E0,8.466647E0,1.1084383E0,4.0562673E0,1.1065398E1,5.3985305E0,2.069615E0],"tree_param":{"num_deleted":"0","num_feature":"6","num_nodes":"13","size_leaf_vector":"0"}},{"base_weights":[8.784967E-2,4.178643E-1,-8.2355285E-1,5.6156176E-1,-3.087984E-1,-2.2201066E-1,-9.6051526E-1,8.47881E-1,3.495755E-1,4.3983173E-1,-7.737621E-1,8.566125E-2,-4.1737357E-1],"categories":[],"categories_nodes":[],"categories_segments":[],"categories_sizes":[],"default_left":[1,1,1,1,1,1,0,0,0,0,0,0,0],"id":45,"left_children":[1,3,5,7,9,11,-1,-1,-1,-1,-1,-1,-1],"loss_changes":[1.0689265E1,2.8794193E0,5.678005E-1,1.0383625E0,2.054218E0,2.1960868E-1,0E0,0E0,0E0,0E0,0E0,0E0,0E0],"parents":[2147483647,0,0,1,1,2,2,3,3,4,4,5,5],"right_children":[2,4,6,8,10,12,-1,-1,-1,-1,-1,-1,-1],"split_conditions":[4.775E0,3.395E0,4.9449997E0,4.135E0,4.1099997E0,3.2649999E0,-9.605153E-2,8.478811E-2,3.495755E-2,4.3983173E-2,-7.737621E-2,8.566125E-3,-4.173736E-2],"split_indices":[3,4,3,3,3,4,0,0,0,0,0,0,0],"split_type":[0,0,0,0,0,0,0,0,0,0,0,0,0],"sum_hessian":[3.3394787E1,2.4914776E1,8.48001E0,2.099101E1,3.923765E0,2.058776E0,6.421234E0,7.6537604E0,1.3337251E1,1.5240192E0,2.3997457E0,1.0176435E0,1.0411325E0],"tree_param":{"num_deleted":"0","num_feature":"6","num_nodes":"13","size_leaf_vector":"0"}},{"base_weights":[8.084143E-2,3.9221475E-1,-7.997731E-1,-3.1565508E-1,7.9221714E-1,-9.11948E-1,1.0336754E-2,3.270626E-1,-5.4416156E-1,8.942804E-1,3.7970203E-1],"categories":[],"categories_nodes":[],"categories_segments":[],"categories_sizes":[],"default_left":[1,1,1,1,1,0,0,0,0,0,0],"id":46,"left_children":[1,3,5,7,9,-1,-1,-1,-1,-1,-1],"loss_changes":[9.391021E0,7.365075E0,8.251796E-1,1.6154456E0,3.484125E-1,0E0,0E0,0E0,0E0,0E0,0E0],"parents":[2147483647,0,0,1,1,2,2,3,3,4,4],"right_children":[2,4,6,8,10,-1,-1,-1,-1,-1,-1],"split_conditions":[4.775E0,1.1253E2,1.1308E2,1.03925E2,1.04165E2,-9.11948E-2,1.0336754E-3,3.270626E-2,-5.4416157E-2,8.942804E-2,3.7970204E-2],"split_indices":[3,5,5,1,2,0,0,0,0,0,0],"split_type":[0,0,0,0,0,0,0,0,0,0,0],"sum_hessian":[3.2104828E1,2.412808E1,7.976748E0,8.78769E0,1.534039E1,6.896139E0,1.0806088E0,2.1917295E0,6.59596E0,1.1361492E1,3.9788976E0],"tree_param":{"num_deleted":"0","num_feature":"6","num_nodes":"11","size_leaf_vector":"0"}},{"base_weights":[7.7563144E-2,4.7919422E-1,-5.6918925E-1,-2.0648281E-1,8.31805E-1,-7.165586E-1,4.2674407E-1,4.3842483E-1,-4.4955322E-1,9.352595E-1,1.2794968E-1,-2.7128452E-1,-8.737178E-1],"categories":[],"categories_nodes":[],"categories_segments":[],"categories_sizes":[],"default_left":[1,1,1,1,1,1,0,0,0,0,0,0,0],"id":47,"left_children":[1,3,5,7,9,11,-1,-1,-1,-1,-1,-1,-1],"loss_changes":[8.448948E0,4.997839E0,2.1426978E0,1.3853219E0,8.546896E-1,5.520282E-1,0E0,0E0,0E0,0E0,0E0,0E0,0E0],"parents":[2147483647,0,0,1,1,2,2,3,3,4,4,5,5],"right_children":[2,4,6,8,10,12,-1,-1,-1,-1,-1,-1,-1],"split_conditions":[4.545E0,1.1253E2,1.1322E2,1.03925E2,3.395E0,4.775E0,4.2674407E-2,4.3842483E-2,-4.4955324E-2,9.352595E-2,1.2794969E-2,-2.7128452E-2,-8.737178E-2],"split_indices":[3,5,5,1,4,3,0,0,0,0,0,0,0],"split_type":[0,0,0,0,0,0,0,0,0,0,0,0,0],"sum_hessian":[3.047646E1,1.8960888E1,1.1515572E1,6.580007E0,1.238088E1,1.0275597E1,1.2399756E0,1.5811771E0,4.99883E0,1.05076685E1,1.8732122E0,3.3918254E0,6.883771E0],"tree_param":{"num_deleted":"0","num_feature":"6","num_nodes":"13","size_leaf_vector":"0"}},{"base_weights":[7.5173296E-2,3.1727126E-1,-9.0979385E-1,-2.3725756E-1,8.167415E-1,5.315792E-1,-4.6253416E-1,9.365239E-1,5.0242923E-2],"categories":[],"categories_nodes":[],"categories_segments":[],"categories_sizes":[],"default_left":[1,1,0,1,1,0,0,0,0],"id":48,"left_children":[1,3,-1,5,7,-1,-1,-1,-1],"loss_changes":[7.4395046E0,7.0661716E0,0E0,2.4166307E0,1.1721811E0,0E0,0E0,0E0,0E0],"parents":[2147483647,0,0,1,1,3,3,4,4],"right_children":[2,4,-1,6,8,-1,-1,-1,-1],"split_conditions":[4.9449997E0,1.12715E2,-9.097939E-2,4.085E0,3.395E0,5.3157922E-2,-4.6253417E-2,9.365239E-2,5.0242925E-3],"split_indices":[3,5,0,3,4,0,0,0,0],"split_type":[0,0,0,0,0,0,0,0,0],"sum_hessian":[2.8987825E1,2.3812714E1,5.1751103E0,1.15331745E1,1.227954E1,2.3054228E0,9.227752E0,1.0428098E1,1.8514426E0],"tree_param":{"num_deleted":"0","num_feature":"6","num_nodes":"9","size_leaf_vector":"0"}},{"base_weights":[7.233329E-2,4.4845605E-1,-5.3202415E-1,7.873057E-1,1.8282992E-1,2.076577E-1,-6.993205E-1,9.252418E-1,2.333218E-1,5.315278E-1,-2.7617753E-1,-8.6521894E-1,-1.6620286E-1],"categories":[],"categories_nodes":[],"categories_segments":[],"categories_sizes":[],"default_left":[1,1,1,1,1,0,1,0,0,0,0,0,0],"id":49,"left_children":[1,3,5,7,9,-1,11,-1,-1,-1,-1,-1,-1],"loss_changes":[6.73556E0,1.4905941E0,1.5586E0,3.708043E-1,1.9846102E0,0E0,7.00284E-1,0E0,0E0,0E0,0E0,0E0,0E0],"parents":[2147483647,0,0,1,1,2,2,3,3,4,4,6,6],"right_children":[2,4,6,8,10,-1,12,-1,-1,-1,-1,-1,-1],"split_conditions":[4.545E0,4.115E0,1.03805E2,3.3649998E0,3.205E0,2.076577E-2,1.71975E2,9.2524186E-2,2.333218E-2,5.315278E-2,-2.7617753E-2,-8.6521894E-2,-1.6620286E-2],"split_indices":[3,3,2,4,4,0,0,0,0,0,0,0,0],"split_type":[0,0,0,0,0,0,0,0,0,0,0,0,0],"sum_hessian":[2.7581661E1,1.7160044E1,1.04216175E1,6.677648E0,1.0482395E1,1.8778152E0,8.543802E0,4.809879E0,1.8677694E0,5.86721E0,4.6151853E0,6.040992E0,2.50281E0],"tree_param":{"num_deleted":"0","num_feature":"6","num_nodes":"13","size_leaf_vector":"0"}},{"base_weights":[6.961632E-2,2.9420516E-1,-8.7519413E-1,7.449797E-1,6.426574E-2,8.8059473E-1,3.1549442E-1,5.609995E-1,-1.6484532E-1],"categories":[],"categories_nodes":[],"categories_segments":[],"categories_sizes":[],"default_left":[1,1,0,1,1,0,0,0,0],"id":50,"left_children":[1,3,-1,5,7,-1,-1,-1,-1],"loss_changes":[6.140998E0,2.3516767E0,0E0,1.7215109E-1,1.9617349E0,0E0,0E0,0E0,0E0],"parents":[2147483647,0,0,1,1,3,3,4,4],"right_children":[2,4,-1,6,8,-1,-1,-1,-1],"split_conditions":[4.9449997E0,4.125E0,-8.7519415E-2,1.7216501E2,1.03935E2,8.805948E-2,3.1549443E-2,5.609995E-2,-1.6484533E-2],"split_indices":[3,3,0,0,1,0,0,0,0],"split_type":[0,0,0,0,0,0,0,0,0],"sum_hessian":[2.6727057E1,2.2150352E1,4.576703E0,6.7255845E0,1.5424768E1,4.3132696E0,2.4123151E0,4.4115443E0,1.1013224E1],"tree_param":{"num_deleted":"0","num_feature":"6","num_nodes":"9","size_leaf_vector":"0"}},{"base_weights":[6.721032E-2,-3.7236103E-1,5.3360826E-1,3.761615E-1,-5.643889E-1,7.929243E-1,-7.5475794E-1,8.04576E-1,-1.1748076E-1,-8.5885257E-1,-2.4650352E-1,5.972168E-2,8.604897E-1],"categories":[],"categories_nodes":[],"categories_segments":[],"categories_sizes":[],"default_left":[1,1,1,1,1,1,0,0,0,0,0,0,0],"id":51,"left_children":[1,3,5,7,9,11,-1,-1,-1,-1,-1,-1,-1],"loss_changes":[5.7257996E0,2.291874E0,5.105932E0,8.461142E-1,9.03507E-1,5.291467E-1,0E0,0E0,0E0,0E0,0E0,0E0,0E0],"parents":[2147483647,0,0,1,1,2,2,3,3,4,4,5,5],"right_children":[2,4,6,8,10,12,-1,-1,-1,-1,-1,-1,-1],"split_conditions":[1.12715E2,4.125E0,5.0950003E0,1.7204001E2,1.12165E2,1.71525E2,-7.54758E-2,8.04576E-2,-1.1748076E-2,-8.588526E-2,-2.4650352E-2,5.972168E-3,8.6048976E-2],"split_indices":[5,3,3,0,5,0,0,0,0,0,0,0,0],"split_type":[0,0,0,0,0,0,0,0,0,0,0,0,0],"sum_hessian":[2.5959494E1,1.3467886E1,1.2491608E1,2.5539038E0,1.0913982E1,1.0718742E1,1.7728654E0,1.0300679E0,1.5238359E0,4.7822847E0,6.1316977E0,1.0633589E0,9.655383E0],"tree_param":{"num_deleted":"0","num_feature":"6","num_nodes":"13","size_leaf_vector":"0"}},{"base_weights":[6.294904E-2,2.6853728E-1,-8.4165657E-1,-2.202302E-1,7.7139646E-1,4.1591504E-1,-4.0321508E-1,8.2983315E-1,1.0657342E-1],"categories":[],"categories_nodes":[],"categories_segments":[],"categories_sizes":[],"default_left":[1,1,0,1,1,0,0,0,0],"id":52,"left_children":[1,3,-1,5,7,-1,-1,-1,-1],"loss_changes":[5.010496E0,5.508341E0,0E0,1.5403993E0,3.3611202E-1,0E0,0E0,0E0,0E0],"parents":[2147483647,0,0,1,1,3,3,4,4],"right_children":[2,4,-1,6,8,-1,-1,-1,-1],"split_conditions":[4.9449997E0,1.12715E2,-8.4165655E-2,4.085E0,1.13705E2,4.1591506E-2,-4.032151E-2,8.2983315E-2,1.0657342E-2],"split_indices":[3,5,0,3,5,0,0,0,0],"split_type":[0,0,0,0,0,0,0,0,0],"sum_hessian":[2.4726294E1,2.0720358E1,4.0059376E0,1.0792419E1,9.9279375E0,2.1265476E0,8.665872E0,8.89765E0,1.0302882E0],"tree_param":{"num_deleted":"0","num_feature":"6","num_nodes":"9","size_leaf_vector":"0"}},{"base_weights":[5.9968222E-2,-7.1293193E-1,2.9378515E-1,-8.094013E-1,-2.8233796E-1,5.287166E-1,-1.907694E-1,7.342103E-1,1.7148271E-1,-6.421555E-1,1.278867E-1],"categories":[],"categories_nodes":[],"categories_segments":[],"categories_sizes":[],"default_left":[1,1,1,0,0,1,1,0,0,0,0],"id":53,"left_children":[1,3,5,-1,-1,7,9,-1,-1,-1,-1],"loss_changes":[4.675796E0,2.2037268E-2,2.341475E0,0E0,0E0,8.6665297E-1,1.1122481E0,0E0,0E0,0E0,0E0],"parents":[2147483647,0,0,1,1,2,2,5,5,6,6],"right_children":[2,4,6,-1,-1,8,10,-1,-1,-1,-1],"split_conditions":[1.12165E2,1.11755005E2,1.04115005E2,-8.094013E-2,-2.8233796E-2,3.205E0,1.12665E2,7.342103E-2,1.7148271E-2,-6.4215556E-2,1.278867E-2],"split_indices":[5,5,2,0,0,4,5,0,0,0,0],"split_type":[0,0,0,0,0,0,0,0,0,0,0],"sum_hessian":[2.3714573E1,5.031954E0,1.868262E1,3.392233E0,1.6397209E0,1.2520864E1,6.161755E0,7.2786555E0,5.2422085E0,2.1297293E0,4.032026E0],"tree_param":{"num_deleted":"0","num_feature":"6","num_nodes":"11","size_leaf_vector":"0"}},{"base_weights":[5.2831464E-2,3.772874E-1,-2.4856606E-1,-9.153894E-2,5.6983846E-1,2.4325804E-1,-3.817948E-1,2.6889527E-1,-3.3793002E-1,7.0627964E-1,-2.325537E-1,-1.2785554E-1,4.6257728E-1,-1.2808193E-1,-5.318082E-1],"categories":[],"categories_nodes":[],"categories_segments":[],"categories_sizes":[],"default_left":[1,1,1,1,1,1,1,0,0,0,0,0,0,0,0],"id":54,"left_children":[1,3,5,7,9,11,13,-1,-1,-1,-1,-1,-1,-1,-1],"loss_changes":[2.4380765E0,1.1301937E0,9.467193E-1,4.7614402E-1,1.1061623E0,3.349255E-1,3.3694196E-1,0E0,0E0,0E0,0E0,0E0,0E0,0E0,0E0],"parents":[2147483647,0,0,1,1,2,2,3,3,4,4,5,5,6,6],"right_children":[2,4,6,8,10,12,14,-1,-1,-1,-1,-1,-1,-1,-1],"split_conditions":[3.205E0,1.71795E2,1.03884995E2,1.04035E2,1.04265E2,1.0371E2,3.355E0,2.6889527E-2,-3.3793002E-2,7.0627965E-2,-2.325537E-2,-1.2785554E-2,4.625773E-2,-1.2808193E-2,-5.318082E-2],"split_indices":[4,0,1,1,2,1,4,0,0,0,0,0,0,0,0],"split_type":[0,0,0,0,0,0,0,0,0,0,0,0,0,0,0],"sum_hessian":[2.2972702E1,1.0941899E1,1.2030802E1,3.338316E0,7.603584E0,2.388309E0,9.642493E0,1.3183813E0,2.0199347E0,6.600925E0,1.0026586E0,1.0420591E0,1.34625E0,4.2717023E0,5.3707905E0],"tree_param":{"num_deleted":"0","num_feature":"6","num_nodes":"15","size_leaf_vector":"0"}},{"base_weights":[4.906123E-2,2.9093158E-1,-6.8082637E-1,-2.3424841E-1,6.773598E-1,-8.0991906E-1,-1.3474522E-2,-7.0178306E-1,6.3699177E-3,8.171363E-1,2.3685867E-1],"categories":[],"categories_nodes":[],"categories_segments":[],"categories_sizes":[],"default_left":[1,1,1,1,1,0,0,0,0,0,0],"id":55,"left_children":[1,3,5,7,9,-1,-1,-1,-1,-1,-1],"loss_changes":[4.3590236E0,3.8936207E0,5.2027917E-1,9.6568894E-1,4.750886E-1,0E0,0E0,0E0,0E0,0E0,0E0],"parents":[2147483647,0,0,1,1,2,2,3,3,4,4],"right_children":[2,4,6,8,10,-1,-1,-1,-1,-1,-1],"split_conditions":[4.775E0,1.1253E2,1.12985E2,1.1175E2,1.04165E2,-8.099191E-2,-1.3474523E-3,-7.017831E-2,6.3699175E-4,8.171363E-2,2.3685867E-2],"split_indices":[3,5,5,5,2,0,0,0,0,0,0],"split_type":[0,0,0,0,0,0,0,0,0,0,0],"sum_hessian":[2.256969E1,1.7403812E1,5.165878E0,7.5443645E0,9.859448E0,4.149555E0,1.0163223E0,1.9122248E0,5.6321397E0,6.835458E0,3.0239904E0],"tree_param":{"num_deleted":"0","num_feature":"6","num_nodes":"11","size_leaf_vector":"0"}},{"base_weights":[4.4144273E-2,2.387227E-1,-8.0997664E-1,4.0732044E-1,-3.9008445E-1,7.180289E-1,2.3232095E-1,3.1719252E-1,-7.338105E-1],"categories":[],"categories_nodes":[],"categories_segments":[],"categories_sizes":[],"default_left":[1,1,0,1,1,0,0,0,0],"id":56,"left_children":[1,3,-1,5,7,-1,-1,-1,-1],"loss_changes":[3.9590032E0,2.1971948E0,0E0,6.8416834E-1,1.3452098E0,0E0,0E0,0E0,0E0],"parents":[2147483647,0,0,1,1,3,3,4,4],"right_children":[2,4,-1,6,8,-1,-1,-1,-1],"split_conditions":[4.9449997E0,3.395E0,-8.099767E-2,4.135E0,4.1099997E0,7.180289E-2,2.3232095E-2,3.1719252E-2,-7.338105E-2],"split_indices":[3,4,0,3,3,0,0,0,0],"split_type":[0,0,0,0,0,0,0,0,0],"sum_hessian":[2.1658186E1,1.822649E1,3.4316962E0,1.4650567E1,3.5759232E0,4.1605506E0,1.0490016E1,1.1947364E0,2.381187E0],"tree_param":{"num_deleted":"0","num_feature":"6","num_nodes":"9","size_leaf_vector":"0"}},{"base_weights":[3.9391004E-2,-3.2769978E-1,4.6997312E-1,3.3096355E-1,-5.0416213E-1,7.243869E-1,-6.747269E-1,-3.661279E-2,5.1314396E-1,-5.844263E-2,-7.9283166E-1,8.870238E-1,-1.9704178E-2],"categories":[],"categories_nodes":[],"categories_segments":[],"categories_sizes":[],"default_left":[1,1,1,1,1,1,0,0,0,0,0,0,0],"id":57,"left_children":[1,3,5,7,9,11,-1,-1,-1,-1,-1,-1,-1],"loss_changes":[3.6436896E0,1.6205087E0,3.5673506E0,2.3618177E-1,1.2738206E0,1.1224933E0,0E0,0E0,0E0,0E0,0E0,0E0,0E0],"parents":[2147483647,0,0,1,1,2,2,3,3,4,4,5,5],"right_children":[2,4,6,8,10,12,-1,-1,-1,-1,-1,-1,-1],"split_conditions":[1.12715E2,4.125E0,5.0950003E0,3.9050002E0,3.205E0,3.395E0,-6.747269E-2,-3.661279E-3,5.1314395E-2,-5.844263E-3,-7.928317E-2,8.870238E-2,-1.9704178E-3],"split_indices":[5,3,3,3,4,4,0,0,0,0,0,0,0],"split_type":[0,0,0,0,0,0,0,0,0,0,0,0,0],"sum_hessian":[2.1077816E1,1.1506738E1,9.571078E0,2.2463746E0,9.260364E0,8.131095E0,1.4399832E0,1.0091974E0,1.2371771E0,4.1126657E0,5.1476974E0,6.51501E0,1.6160846E0],"tree_param":{"num_deleted":"0","num_feature":"6","num_nodes":"13","size_leaf_vector":"0"}},{"base_weights":[3.6579855E-2,-6.6026765E-1,2.4742822E-1,-7.677219E-1,-2.263377E-1,5.2039564E-1,-4.7061976E-2,-1.1077389E-1,6.83616E-1,-3.6439043E-1,3.373018E-1],"categories":[],"categories_nodes":[],"categories_segments":[],"categories_sizes":[],"default_left":[1,1,1,0,0,1,1,0,0,0,0],"id":58,"left_children":[1,3,5,-1,-1,7,9,-1,-1,-1,-1],"loss_changes":[3.2820861E0,6.884694E-2,1.3928918E0,0E0,0E0,9.9437094E-1,1.233522E0,0E0,0E0,0E0,0E0],"parents":[2147483647,0,0,1,1,2,2,5,5,6,6],"right_children":[2,4,6,-1,-1,8,10,-1,-1,-1,-1],"split_conditions":[1.12165E2,1.11755005E2,3.1950002E0,-7.677219E-2,-2.263377E-2,1.71655E2,1.129E2,-1.1077389E-2,6.83616E-2,-3.6439043E-2,3.373018E-2],"split_indices":[5,5,4,0,0,0,5,0,0,0,0],"split_type":[0,0,0,0,0,0,0,0,0,0,0],"sum_hessian":[2.0225992E1,4.203168E0,1.6022825E1,2.752368E0,1.4508E0,7.9171715E0,8.105653E0,1.6927323E0,6.224439E0,4.468473E0,3.6371803E0],"tree_param":{"num_deleted":"0","num_feature":"6","num_nodes":"11","size_leaf_vector":"0"}},{"base_weights":[3.1892803E-2,2.1251447E-1,-7.7647597E-1,-1.8983081E-1,6.9055873E-1,3.8621935E-1,-3.7243834E-1,7.5803E-1,1.0705802E-1],"categories":[],"categories_nodes":[],"categories_segments":[],"categories_sizes":[],"default_left":[1,1,0,1,1,0,0,0,0],"id":59,"left_children":[1,3,-1,5,7,-1,-1,-1,-1],"loss_changes":[3.176085E0,3.5241978E0,0E0,1.2339869E0,2.4474168E-1,0E0,0E0,0E0,0E0],"parents":[2147483647,0,0,1,1,3,3,4,4],"right_children":[2,4,-1,6,8,-1,-1,-1,-1],"split_conditions":[4.9449997E0,1.12715E2,-7.76476E-2,1.03884995E2,1.13665E2,3.8621936E-2,-3.7243836E-2,7.5803004E-2,1.0705802E-2],"split_indices":[3,5,0,1,5,0,0,0,0],"split_type":[0,0,0,0,0,0,0,0,0],"sum_hessian":[1.9622526E1,1.6641306E1,2.9812212E0,9.363462E0,7.2778435E0,1.9853841E0,7.378078E0,6.2554116E0,1.0224321E0],"tree_param":{"num_deleted":"0","num_feature":"6","num_nodes":"9","size_leaf_vector":"0"}},{"base_weights":[3.0585134E-2,-6.276748E-1,2.2641887E-1,-7.416578E-1,-1.96299E-1,4.8605907E-1,-6.899402E-2,-9.930894E-2,6.359847E-1,-4.0218976E-1,2.390347E-1],"categories":[],"categories_nodes":[],"categories_segments":[],"categories_sizes":[],"default_left":[1,1,1,0,0,1,1,0,0,0,0],"id":60,"left_children":[1,3,5,-1,-1,7,9,-1,-1,-1,-1],"loss_changes":[2.7105048E0,9.20707E-2,1.2676959E0,0E0,0E0,8.2563925E-1,9.5851344E-1,0E0,0E0,0E0,0E0],"parents":[2147483647,0,0,1,1,2,2,5,5,6,6],"right_children":[2,4,6,-1,-1,8,10,-1,-1,-1,-1],"split_conditions":[1.12165E2,1.11755005E2,3.205E0,-7.4165784E-2,-1.9629901E-2,1.71655E2,1.12725006E2,-9.930894E-3,6.359848E-2,-4.0218975E-2,2.390347E-2],"split_indices":[5,5,4,0,0,0,5,0,0,0,0],"split_type":[0,0,0,0,0,0,0,0,0,0,0],"sum_hessian":[1.8923958E1,3.8334298E0,1.50905285E1,2.463272E0,1.3701578E0,7.688076E0,7.4024525E0,1.63643E0,6.051646E0,3.4091134E0,3.9933388E0],"tree_param":{"num_deleted":"0","num_feature":"6","num_nodes":"11","size_leaf_vector":"0"}},{"base_weights":[2.5446057E-2,-6.091646E-1,2.108175E-1,-7.248375E-1,-1.8690415E-1,5.96905E-1,1.3488723E-2,1.4388177E-1,6.824827E-1,4.3524185E-1,-2.0428252E-1],"categories":[],"categories_nodes":[],"categories_segments":[],"categories_sizes":[],"default_left":[1,1,1,0,0,1,1,0,0,0,0],"id":61,"left_children":[1,3,5,-1,-1,7,9,-1,-1,-1,-1],"loss_changes":[2.4126184E0,9.148705E-2,1.1934333E0,0E0,0E0,1.07699275E-1,1.1414169E0,0E0,0E0,0E0,0E0],"parents":[2147483647,0,0,1,1,2,2,5,5,6,6],"right_children":[2,4,6,-1,-1,8,10,-1,-1,-1,-1],"split_conditions":[1.12165E2,1.11755005E2,1.03935E2,-7.248375E-2,-1.8690415E-2,1.03615005E2,3.0949998E0,1.4388177E-2,6.824827E-2,4.3524187E-2,-2.0428253E-2],"split_indices":[5,5,1,0,0,1,4,0,0,0,0],"split_type":[0,0,0,0,0,0,0,0,0,0,0],"sum_hessian":[1.8417044E1,3.646666E0,1.4770378E1,2.3000355E0,1.3466307E0,4.3108916E0,1.0459486E1,1.1109818E0,3.19991E0,3.2216203E0,7.237866E0],"tree_param":{"num_deleted":"0","num_feature":"6","num_nodes":"11","size_leaf_vector":"0"}},{"base_weights":[2.4180515E-2,3.2325202E-1,-4.5107538E-1,5.1429904E-1,-1.8847972E-1,2.432661E-1,-6.249014E-1,7.3304856E-1,1.7898747E-1,2.943539E-1,-4.4247878E-1,-4.2417385E-3,-7.3941356E-1],"categories":[],"categories_nodes":[],"categories_segments":[],"categories_sizes":[],"default_left":[1,1,1,1,1,0,1,0,0,0,0,0,0],"id":62,"left_children":[1,3,5,7,9,-1,11,-1,-1,-1,-1,-1,-1],"loss_changes":[2.851083E0,1.2959595E0,1.0896546E0,5.435009E-1,6.288746E-1,0E0,4.5837045E-1,0E0,0E0,0E0,0E0,0E0,0E0],"parents":[2147483647,0,0,1,1,2,2,3,3,4,4,6,6],"right_children":[2,4,6,8,10,-1,12,-1,-1,-1,-1,-1,-1],"split_conditions":[4.545E0,1.04165E2,1.03805E2,3.205E0,4.125E0,2.4326611E-2,3.0549998E0,7.3304854E-2,1.7898748E-2,2.943539E-2,-4.4247877E-2,-4.2417386E-4,-7.394136E-2],"split_indices":[3,2,2,4,3,0,4,0,0,0,0,0,0],"split_type":[0,0,0,0,0,0,0,0,0,0,0,0,0],"sum_hessian":[1.803305E1,1.12643795E1,6.7686715E0,8.19856E0,3.06582E0,1.2752508E0,5.4934206E0,4.2438183E0,3.9547412E0,1.0020735E0,2.0637465E0,1.0172002E0,4.4762206E0],"tree_param":{"num_deleted":"0","num_feature":"6","num_nodes":"13","size_leaf_vector":"0"}},{"base_weights":[2.3796888E-2,-3.5117742E-1,3.4083143E-1,1.9565156E-1,-5.0164926E-1,5.2490187E-1,-2.2475427E-1,-1.5052326E-1,-6.960893E-1,6.28349E-1,6.0125887E-2,1.4995031E-1,-4.5745674E-1],"categories":[],"categories_nodes":[],"categories_segments":[],"categories_sizes":[],"default_left":[1,1,1,0,1,1,1,0,0,0,0,0,0],"id":63,"left_children":[1,3,5,-1,7,9,11,-1,-1,-1,-1,-1,-1],"loss_changes":[2.3335414E0,8.4068155E-1,1.221345E0,0E0,3.97537E-1,3.610828E-1,3.565573E-1,0E0,0E0,0E0,0E0,0E0,0E0],"parents":[2147483647,0,0,1,1,2,2,4,4,5,5,6,6],"right_children":[2,4,6,-1,8,10,12,-1,-1,-1,-1,-1,-1],"split_conditions":[1.12535E2,1.03875E2,3.395E0,1.9565156E-2,3.1950002E0,1.04365005E2,1.0414E2,-1.5052326E-2,-6.9608934E-2,6.28349E-2,6.0125887E-3,1.4995031E-2,-4.5745675E-2],"split_indices":[5,1,4,0,4,1,1,0,0,0,0,0,0],"split_type":[0,0,0,0,0,0,0,0,0,0,0,0,0],"sum_hessian":[1.7622581E1,8.024209E0,9.5983715E0,1.6667665E0,6.357443E0,7.295859E0,2.3025124E0,2.8981004E0,3.4593425E0,5.679753E0,1.6161058E0,1.0183492E0,1.2841632E0],"tree_param":{"num_deleted":"0","num_feature":"6","num_nodes":"13","size_leaf_vector":"0"}},{"base_weights":[2.056107E-2,6.454906E-1,-2.0357549E-1,8.1670165E-1,1.574148E-1,-4.1455844E-1,3.0861533E-1,-1.1565979E-1,-7.0625734E-1,6.127892E-1,-1.9094364E-1],"categories":[],"categories_nodes":[],"categories_segments":[],"categories_sizes":[],"default_left":[1,1,1,0,0,1,1,0,0,0,0],"id":64,"left_children":[1,3,5,-1,-1,7,9,-1,-1,-1,-1],"loss_changes":[2.6775854E0,2.9246664E-1,1.655912E0,0E0,0E0,8.28663E-1,8.309451E-1,0E0,0E0,0E0,0E0],"parents":[2147483647,0,0,1,1,2,2,5,5,6,6],"right_children":[2,4,6,-1,-1,8,10,-1,-1,-1,-1],"split_conditions":[4.125E0,1.7216501E2,1.12994995E2,8.1670165E-2,1.574148E-2,4.5950003E0,1.04165E2,-1.1565979E-2,-7.062574E-2,6.127892E-2,-1.9094365E-2],"split_indices":[3,0,5,0,0,3,2,0,0,0,0],"split_type":[0,0,0,0,0,0,0,0,0,0,0],"sum_hessian":[1.7177965E1,4.038385E0,1.313958E1,2.491195E0,1.5471901E0,9.441167E0,3.6984127E0,5.352776E0,4.0883904E0,2.1578624E0,1.5405502E0],"tree_param":{"num_deleted":"0","num_feature":"6","num_nodes":"11","size_leaf_vector":"0"}},{"base_weights":[2.2321904E-2,1.932262E-1,-7.392409E-1,-1.5435317E-1,6.339183E-1,3.952398E-1,-3.2415864E-1,8.348594E-1,-7.198688E-2],"categories":[],"categories_nodes":[],"categories_segments":[],"categories_sizes":[],"default_left":[1,1,0,1,1,0,0,0,0],"id":65,"left_children":[1,3,-1,5,7,-1,-1,-1,-1],"loss_changes":[2.4540136E0,2.4407248E0,0E0,1.0011882E0,1.0445254E0,0E0,0E0,0E0,0E0],"parents":[2147483647,0,0,1,1,3,3,4,4],"right_children":[2,4,-1,6,8,-1,-1,-1,-1],"split_conditions":[4.9449997E0,1.12715E2,-7.392409E-2,4.085E0,3.395E0,3.952398E-2,-3.2415863E-2,8.348594E-2,-7.1986876E-3],"split_indices":[3,5,0,3,4,0,0,0,0],"split_type":[0,0,0,0,0,0,0,0,0],"sum_hessian":[1.675717E1,1.42953825E1,2.4617875E0,8.355245E0,5.940138E0,1.6587912E0,6.6964536E0,4.4817076E0,1.4584302E0],"tree_param":{"num_deleted":"0","num_feature":"6","num_nodes":"9","size_leaf_vector":"0"}},{"base_weights":[2.1773629E-2,-5.534183E-1,1.8730342E-1,-6.820297E-1,-1.3166614E-1,4.19728E-1,-2.3021679E-1,6.0328096E-1,1.4175622E-1,-5.744156E-1,6.2870644E-2],"categories":[],"categories_nodes":[],"categories_segments":[],"categories_sizes":[],"default_left":[1,1,1,0,0,1,1,0,0,0,0],"id":66,"left_children":[1,3,5,-1,-1,7,9,-1,-1,-1,-1],"loss_changes":[1.7430713E0,1.3263285E-1,1.4666605E0,0E0,0E0,3.952911E-1,6.105727E-1,0E0,0E0,0E0,0E0],"parents":[2147483647,0,0,1,1,2,2,5,5,6,6],"right_children":[2,4,6,-1,-1,8,10,-1,-1,-1,-1],"split_conditions":[1.12165E2,1.11755005E2,1.04115005E2,-6.820297E-2,-1.3166614E-2,3.205E0,1.12665E2,6.0328096E-2,1.4175623E-2,-5.7441562E-2,6.2870644E-3],"split_indices":[5,5,2,0,0,4,5,0,0,0,0],"split_type":[0,0,0,0,0,0,0,0,0,0,0],"sum_hessian":[1.6218676E1,3.10074E0,1.3117935E1,1.9032257E0,1.1975144E0,8.423477E0,4.6944575E0,4.3685193E0,4.054958E0,1.71753E0,2.9769275E0],"tree_param":{"num_deleted":"0","num_feature":"6","num_nodes":"11","size_leaf_vector":"0"}},{"base_weights":[1.65724E-2,-1.8727203E-1,4.4744247E-1,2.6964226E-1,-3.3060566E-1,7.0470476E-1,3.683136E-2,6.7236716E-1,-1.8382606E-1,-1.4602956E-1,-7.0464087E-1,-2.0409794E-1,2.8491524E-1],"categories":[],"categories_nodes":[],"categories_segments":[],"categories_sizes":[],"default_left":[1,1,1,1,1,0,1,0,0,0,0,0,0],"id":67,"left_children":[1,3,5,7,9,-1,11,-1,-1,-1,-1,-1,-1],"loss_changes":[1.5660851E0,8.856206E-1,5.777652E-1,7.545338E-1,5.672333E-1,0E0,2.5280032E-1,0E0,0E0,0E0,0E0,0E0,0E0],"parents":[2147483647,0,0,1,1,2,2,3,3,4,4,6,6],"right_children":[2,4,6,8,10,-1,12,-1,-1,-1,-1,-1,-1],"split_conditions":[1.12994995E2,1.03884995E2,1.04145004E2,1.0381E2,1.04205E2,7.0470475E-2,1.04285E2,6.7236714E-2,-1.8382607E-2,-1.4602956E-2,-7.046409E-2,-2.0409795E-2,2.8491525E-2],"split_indices":[5,1,1,2,2,0,1,0,0,0,0,0,0],"split_type":[0,0,0,0,0,0,0,0,0,0,0,0,0],"sum_hessian":[1.5876738E1,1.1161568E1,4.7151694E0,2.4548512E0,8.706717E0,2.4585607E0,2.2566087E0,1.0445052E0,1.4103459E0,6.7608433E0,1.9458735E0,1.2347605E0,1.0218481E0],"tree_param":{"num_deleted":"0","num_feature":"6","num_nodes":"13","size_leaf_vector":"0"}},{"base_weights":[1.798349E-2,1.8505006E-1,-7.2016096E-1,-1.844279E-1,5.3409964E-1,2.5858852E-1,-3.4104893E-1,8.470221E-1,-2.7619156E-1],"categories":[],"categories_nodes":[],"categories_segments":[],"categories_sizes":[],"default_left":[1,1,0,1,1,0,0,0,0],"id":68,"left_children":[1,3,-1,5,7,-1,-1,-1,-1],"loss_changes":[2.1788244E0,1.9455131E0,0E0,6.225008E-1,2.1663337E0,0E0,0E0,0E0,0E0],"parents":[2147483647,0,0,1,1,3,3,4,4],"right_children":[2,4,-1,6,8,-1,-1,-1,-1],"split_conditions":[4.9449997E0,1.12545E2,-7.20161E-2,4.135E0,3.395E0,2.5858853E-2,-3.4104895E-2,8.4702216E-2,-2.7619157E-2],"split_indices":[3,5,0,3,4,0,0,0,0],"split_type":[0,0,0,0,0,0,0,0,0],"sum_hessian":[1.55875025E1,1.3321671E1,2.265832E0,6.7005715E0,6.621099E0,1.5800928E0,5.1204786E0,4.743788E0,1.8773112E0],"tree_param":{"num_deleted":"0","num_feature":"6","num_nodes":"9","size_leaf_vector":"0"}},{"base_weights":[1.5923945E-2,5.891025E-1,-1.9017905E-1,7.7290344E-1,1.0856547E-1,-2.0766675E-2,-7.170634E-1,-2.874555E-1,4.1379952E-1],"categories":[],"categories_nodes":[],"categories_segments":[],"categories_sizes":[],"default_left":[1,1,1,0,0,1,0,0,0],"id":69,"left_children":[1,3,5,-1,-1,7,-1,-1,-1],"loss_changes":[2.0087273E0,3.126924E-1,1.1066786E0,0E0,0E0,1.3402127E0,0E0,0E0,0E0],"parents":[2147483647,0,0,1,1,2,2,5,5],"right_children":[2,4,6,-1,-1,8,-1,-1,-1],"split_conditions":[4.125E0,1.7216501E2,5.045E0,7.729035E-2,1.0856547E-2,1.12715E2,-7.170635E-2,-2.874555E-2,4.1379955E-2],"split_indices":[3,0,3,0,0,5,0,0,0],"split_type":[0,0,0,0,0,0,0,0,0],"sum_hessian":[1.5055457E1,3.490363E0,1.1565094E1,2.0846047E0,1.405758E0,9.53777E0,2.0273237E0,6.120318E0,3.4174528E0],"tree_param":{"num_deleted":"0","num_feature":"6","num_nodes":"9","size_leaf_vector":"0"}},{"base_weights":[1.657651E-2,1.9929387E-1,-5.7153267E-1,-5.7055926E-1,3.2768527E-1,-1.1775031E-1,-6.991408E-1,5.2294594E-1,-2.3300779E-1],"categories":[],"categories_nodes":[],"categories_segments":[],"categories_sizes":[],"default_left":[1,1,1,0,1,0,0,0,0],"id":70,"left_children":[1,3,5,-1,7,-1,-1,-1,-1],"loss_changes":[1.8006644E0,1.4440038E0,1.4810646E-1,0E0,1.3847167E0,0E0,0E0,0E0,0E0],"parents":[2147483647,0,0,1,1,2,2,4,4],"right_children":[2,4,6,-1,8,-1,-1,-1,-1],"split_conditions":[4.775E0,1.1175E2,5.045E0,-5.7055928E-2,3.375E0,-1.1775031E-2,-6.991408E-2,5.2294593E-2,-2.330078E-2],"split_indices":[3,5,3,0,4,0,0,0,0],"split_type":[0,0,0,0,0,0,0,0,0],"sum_hessian":[1.4696973E1,1.1717604E1,2.979369E0,1.1826086E0,1.0534995E1,1.075955E0,1.903414E0,7.8637695E0,2.6712258E0],"tree_param":{"num_deleted":"0","num_feature":"6","num_nodes":"9","size_leaf_vector":"0"}},{"base_weights":[8.100877E-3,5.632334E-1,-1.9131269E-1,7.416891E-1,1.0341848E-1,2.6520568E-1,-3.5724932E-1,6.5625405E-1,-3.8693252E-1,-4.8278537E-1,2.9632127E-2],"categories":[],"categories_nodes":[],"categories_segments":[],"categories_sizes":[],"default_left":[1,1,1,0,0,1,1,0,0,0,0],"id":71,"left_children":[1,3,5,-1,-1,7,9,-1,-1,-1,-1],"loss_changes":[1.8043423E0,2.7646017E-1,1.0054458E0,0E0,0E0,1.2175865E0,4.6322381E-1,0E0,0E0,0E0,0E0],"parents":[2147483647,0,0,1,1,2,2,5,5,6,6],"right_children":[2,4,6,-1,-1,8,10,-1,-1,-1,-1],"split_conditions":[4.125E0,1.7216501E2,1.03935E2,7.416891E-2,1.0341848E-2,4.5950003E0,1.72095E2,6.562541E-2,-3.8693253E-2,-4.8278537E-2,2.9632128E-3],"split_indices":[3,0,1,0,0,3,0,0,0,0,0],"split_type":[0,0,0,0,0,0,0,0,0,0,0],"sum_hessian":[1.4325874E1,3.3039122E0,1.1021962E1,1.938541E0,1.365371E0,2.7788005E0,8.243161E0,1.7331954E0,1.0456051E0,6.0365276E0,2.2066338E0],"tree_param":{"num_deleted":"0","num_feature":"6","num_nodes":"11","size_leaf_vector":"0"}},{"base_weights":[1.2013966E-2,5.602948E-1,-1.6890071E-1,7.255747E-1,1.2108871E-1,-6.9400734E-1,7.5846678E-3,1.6810292E-1,-6.0899824E-1],"categories":[],"categories_nodes":[],"categories_segments":[],"categories_sizes":[],"default_left":[1,1,1,0,0,0,1,0,0],"id":72,"left_children":[1,3,5,-1,-1,-1,7,-1,-1],"loss_changes":[1.5935472E0,2.011112E-1,1.1294392E0,0E0,0E0,0E0,1.0988567E0,0E0,0E0],"parents":[2147483647,0,0,1,1,2,2,6,6],"right_children":[2,4,6,-1,-1,-1,8,-1,-1],"split_conditions":[4.115E0,1.7216501E2,1.12165E2,7.255747E-2,1.2108872E-2,-6.9400735E-2,5.0550003E0,1.6810292E-2,-6.0899824E-2],"split_indices":[3,0,5,0,0,0,3,0,0],"split_type":[0,0,0,0,0,0,0,0,0],"sum_hessian":[1.411122E1,2.9807463E0,1.1130474E1,1.6920053E0,1.288741E0,2.0622299E0,9.068244E0,7.7722244E0,1.29602E0],"tree_param":{"num_deleted":"0","num_feature":"6","num_nodes":"9","size_leaf_vector":"0"}},{"base_weights":[8.85183E-3,-6.2177545E-1,1.2637223E-1,2.8972518E-1,-2.5255424E-1,2.377557E-2,5.0222534E-1,-4.2195317E-1,1.5750699E-1],"categories":[],"categories_nodes":[],"categories_segments":[],"categories_sizes":[],"default_left":[1,0,1,1,1,0,0,0,0],"id":73,"left_children":[1,-1,3,5,7,-1,-1,-1,-1],"loss_changes":[1.1746897E0,0E0,8.962945E-1,5.3951746E-1,3.8183022E-1,0E0,0E0,0E0,0E0],"parents":[2147483647,0,0,2,2,3,3,4,4],"right_children":[2,-1,4,6,8,-1,-1,-1,-1],"split_conditions":[1.11755005E2,-6.2177546E-2,3.355E0,1.12545E2,1.13225E2,2.377557E-3,5.0222535E-2,-4.2195316E-2,1.5750699E-2],"split_indices":[5,0,4,5,5,0,0,0,0],"split_type":[0,0,0,0,0,0,0,0,0],"sum_hessian":[1.3790057E1,1.4921627E0,1.22978945E1,8.757845E0,3.5400496E0,4.383573E0,4.3742723E0,2.4846318E0,1.0554179E0],"tree_param":{"num_deleted":"0","num_feature":"6","num_nodes":"9","size_leaf_vector":"0"}},{"base_weights":[5.6455894E-3,1.8129659E-1,-3.3236513E-1,4.182123E-1,-3.7349574E-2,-5.788551E-1,2.5096673E-1,-5.8416143E-2,5.6251E-1,-5.1536757E-1,2.2461662E-1],"categories":[],"categories_nodes":[],"categories_segments":[],"categories_sizes":[],"default_left":[1,1,1,1,1,0,0,0,0,0,0],"id":74,"left_children":[1,3,5,7,9,-1,-1,-1,-1,-1,-1],"loss_changes":[9.231572E-1,5.445521E-1,9.1063076E-1,3.755511E-1,8.9568526E-1,0E0,0E0,0E0,0E0,0E0,0E0],"parents":[2147483647,0,0,1,1,2,2,3,3,4,4],"right_children":[2,4,6,8,10,-1,-1,-1,-1,-1,-1],"split_conditions":[1.04165E2,3.1950002E0,1.7210501E2,1.71785E2,3.255E0,-5.788551E-2,2.5096674E-2,-5.841614E-3,5.6251E-2,-5.1536757E-2,2.2461662E-2],"split_indices":[2,4,0,0,4,0,0,0,0,0,0],"split_type":[0,0,0,0,0,0,0,0,0,0,0],"sum_hessian":[1.3533815E1,9.210904E0,4.3229113E0,3.9826922E0,5.228212E0,3.0442302E0,1.278681E0,1.0638542E0,2.918838E0,1.5084287E0,3.7197833E0],"tree_param":{"num_deleted":"0","num_feature":"6","num_nodes":"11","size_leaf_vector":"0"}},{"base_weights":[4.449471E-3,5.16412E-1,-1.7715548E-1,7.213163E-1,4.8157573E-2,2.2709985E-1,-3.6082098E-1,-2.3168303E-2,4.4422904E-1,1.9580972E-1,-5.2459323E-1],"categories":[],"categories_nodes":[],"categories_segments":[],"categories_sizes":[],"default_left":[1,1,1,0,0,1,1,0,0,0,0],"id":75,"left_children":[1,3,5,-1,-1,7,9,-1,-1,-1,-1],"loss_changes":[1.4309599E0,3.5171402E-1,9.2681503E-1,0E0,0E0,2.3681241E-1,8.512008E-1,0E0,0E0,0E0,0E0],"parents":[2147483647,0,0,1,1,2,2,5,5,6,6],"right_children":[2,4,6,-1,-1,8,10,-1,-1,-1,-1],"split_conditions":[4.125E0,3.3649998E0,3.0949998E0,7.213163E-2,4.8157573E-3,2.995E0,1.03884995E2,-2.3168304E-3,4.4422906E-2,1.9580973E-2,-5.2459326E-2],"split_indices":[3,4,4,0,0,4,1,0,0,0,0],"split_type":[0,0,0,0,0,0,0,0,0,0,0],"sum_hessian":[1.3406838E1,3.027739E0,1.03791E1,1.7301869E0,1.2975521E0,3.1685357E0,7.210564E0,1.8869222E0,1.2816135E0,1.5947363E0,5.6158276E0],"tree_param":{"num_deleted":"0","num_feature":"6","num_nodes":"11","size_leaf_vector":"0"}},{"base_weights":[1.020493E-2,1.4404242E-1,-6.491728E-1,3.1401813E-1,-2.7557465E-1,4.0661246E-1,-2.2065103E-1,1.4043467E-1,-4.8323056E-1],"categories":[],"categories_nodes":[],"categories_segments":[],"categories_sizes":[],"default_left":[1,1,0,1,1,0,0,0,0],"id":76,"left_children":[1,3,-1,5,7,-1,-1,-1,-1],"loss_changes":[1.3486315E0,9.881603E-1,0E0,5.582654E-1,4.286961E-1,0E0,0E0,0E0,0E0],"parents":[2147483647,0,0,1,1,3,3,4,4],"right_children":[2,4,-1,6,8,-1,-1,-1,-1],"split_conditions":[5.045E0,3.375E0,-6.491728E-2,1.04274994E2,1.0405E2,4.0661246E-2,-2.2065103E-2,1.4043467E-2,-4.8323058E-2],"split_indices":[3,4,0,2,2,0,0,0,0],"split_type":[0,0,0,0,0,0,0,0,0],"sum_hessian":[1.3222444E1,1.1641129E1,1.5813154E0,8.464172E0,3.1769555E0,7.418874E0,1.0452986E0,1.1655849E0,2.0113707E0],"tree_param":{"num_deleted":"0","num_feature":"6","num_nodes":"9","size_leaf_vector":"0"}},{"base_weights":[3.4830028E-3,-1.787953E-1,4.0530846E-1,-6.061743E-1,-4.4255167E-2,6.3456684E-1,4.7528215E-2,9.997849E-2,-5.432491E-1],"categories":[],"categories_nodes":[],"categories_segments":[],"categories_sizes":[],"default_left":[1,1,1,0,1,0,0,0,0],"id":77,"left_children":[1,3,5,-1,7,-1,-1,-1,-1],"loss_changes":[1.0987365E0,5.67317E-1,3.5360187E-1,0E0,6.975768E-1,0E0,0E0,0E0,0E0],"parents":[2147483647,0,0,1,1,2,2,4,4],"right_children":[2,4,6,-1,8,-1,-1,-1,-1],"split_conditions":[1.12994995E2,1.11755005E2,1.04145004E2,-6.061743E-2,1.04274994E2,6.3456684E-2,4.7528218E-3,9.997849E-3,-5.4324906E-2],"split_indices":[5,5,1,0,2,0,0,0,0],"split_type":[0,0,0,0,0,0,0,0,0],"sum_hessian":[1.301164E1,9.332996E0,3.6786435E0,1.3952692E0,7.937727E0,1.7705127E0,1.9081308E0,6.77815E0,1.1595773E0],"tree_param":{"num_deleted":"0","num_feature":"6","num_nodes":"9","size_leaf_vector":"0"}},{"base_weights":[5.4382917E-4,5.124922E-1,-1.6636054E-1,7.0533204E-1,7.236943E-2,-6.559299E-1,-5.4840744E-3,1.6331615E-1,-5.5805E-1],"categories":[],"categories_nodes":[],"categories_segments":[],"categories_sizes":[],"default_left":[1,1,1,0,0,0,1,0,0],"id":78,"left_children":[1,3,5,-1,-1,-1,7,-1,-1],"loss_changes":[1.2644858E0,2.5773746E-1,8.755735E-1,0E0,0E0,0E0,9.688563E-1,0E0,0E0],"parents":[2147483647,0,0,1,1,2,2,6,6],"right_children":[2,4,6,-1,-1,-1,8,-1,-1],"split_conditions":[4.115E0,3.3649998E0,1.12165E2,7.053321E-2,7.2369426E-3,-6.5593E-2,3.395E0,1.6331615E-2,-5.5804998E-2],"split_indices":[3,4,5,0,0,0,4,0,0],"split_type":[0,0,0,0,0,0,0,0,0],"sum_hessian":[1.280078E1,2.6381545E0,1.0162626E1,1.4154115E0,1.2227429E0,1.75245E0,8.410176E0,6.9817896E0,1.4283867E0],"tree_param":{"num_deleted":"0","num_feature":"6","num_nodes":"9","size_leaf_vector":"0"}},{"base_weights":[-1.6225544E-3,-1.7682768E-1,3.879765E-1,2.1177702E-1,-2.9761016E-1,5.615176E-1,-5.5381663E-2,-1.131134E-2,-4.853241E-1],"categories":[],"categories_nodes":[],"categories_segments":[],"categories_sizes":[],"default_left":[1,1,1,0,1,0,0,0,0],"id":79,"left_children":[1,3,5,-1,7,-1,-1,-1,-1],"loss_changes":[9.9571896E-1,5.350132E-1,3.793574E-1,0E0,4.2913485E-1,0E0,0E0,0E0,0E0],"parents":[2147483647,0,0,1,1,2,2,4,4],"right_children":[2,4,6,-1,8,-1,-1,-1,-1],"split_conditions":[1.12994995E2,1.03884995E2,3.395E0,2.1177702E-2,3.1950002E0,5.615176E-2,-5.5381665E-3,-1.131134E-3,-4.853241E-2],"split_indices":[5,1,4,0,4,0,0,0,0],"split_type":[0,0,0,0,0,0,0,0,0],"sum_hessian":[1.2582146E1,9.055818E0,3.5263288E0,1.9686195E0,7.087198E0,2.342793E0,1.1835359E0,3.2264767E0,3.860721E0],"tree_param":{"num_deleted":"0","num_feature":"6","num_nodes":"9","size_leaf_vector":"0"}},{"base_weights":[2.2505221E-4,4.879663E-1,-1.7060377E-1,6.7100924E-1,6.766943E-2,1.9505984E-1,-3.35931E-1,-2.3536864E-1,4.2828852E-1,1.5660664E-1,-4.8172373E-1],"categories":[],"categories_nodes":[],"categories_segments":[],"categories_sizes":[],"default_left":[1,1,1,0,0,1,1,0,0,0,0],"id":80,"left_children":[1,3,5,-1,-1,7,9,-1,-1,-1,-1],"loss_changes":[1.1987828E0,2.4170053E-1,7.097603E-1,0E0,0E0,4.974032E-1,6.287917E-1,0E0,0E0,0E0,0E0],"parents":[2147483647,0,0,1,1,2,2,5,5,6,6],"right_children":[2,4,6,-1,-1,8,10,-1,-1,-1,-1],"split_conditions":[4.125E0,3.3649998E0,3.0949998E0,6.710093E-2,6.766943E-3,1.12435E2,1.03884995E2,-2.3536865E-2,4.2828854E-2,1.5660664E-2,-4.8172373E-2],"split_indices":[3,4,4,0,0,5,1,0,0,0,0],"split_type":[0,0,0,0,0,0,0,0,0,0,0],"sum_hessian":[1.2388509E1,2.7319443E0,9.656564E0,1.4875784E0,1.2443659E0,2.9506357E0,6.7059283E0,1.033716E0,1.9169198E0,1.5146729E0,5.1912556E0],"tree_param":{"num_deleted":"0","num_feature":"6","num_nodes":"11","size_leaf_vector":"0"}},{"base_weights":[4.900149E-3,1.4787203E-1,-5.735777E-1,-1.7713307E-1,4.7850248E-1,1.7947105E-1,-2.952983E-1,5.676837E-1,9.6683346E-2],"categories":[],"categories_nodes":[],"categories_segments":[],"categories_sizes":[],"default_left":[1,1,0,1,1,0,0,0,0],"id":81,"left_children":[1,3,-1,5,7,-1,-1,-1,-1],"loss_changes":[1.178063E0,1.3091139E0,0E0,3.2587135E-1,1.466378E-1,0E0,0E0,0E0,0E0],"parents":[2147483647,0,0,1,1,3,3,4,4],"right_children":[2,4,-1,6,8,-1,-1,-1,-1],"split_conditions":[4.885E0,1.1253E2,-5.735777E-2,1.03875E2,4.545E0,1.7947106E-2,-2.952983E-2,5.676837E-2,9.668334E-3],"split_indices":[3,5,0,1,3,0,0,0,0],"split_type":[0,0,0,0,0,0,0,0,0],"sum_hessian":[1.2218461E1,1.0393953E1,1.8245077E0,5.475687E0,4.918267E0,1.2337149E0,4.241972E0,3.5924046E0,1.325862E0],"tree_param":{"num_deleted":"0","num_feature":"6","num_nodes":"9","size_leaf_vector":"0"}},{"base_weights":[4.4580135E-3,1.2980504E-1,-6.115315E-1,2.809423E-1,-2.3600784E-1,6.23166E-1,1.2074336E-1,1.5439129E-1,-4.3823555E-1],"categories":[],"categories_nodes":[],"categories_segments":[],"categories_sizes":[],"default_left":[1,1,0,1,1,0,0,0,0],"id":82,"left_children":[1,3,-1,5,7,-1,-1,-1,-1],"loss_changes":[1.0786632E0,7.064637E-1,0E0,3.9898378E-1,3.7782317E-1,0E0,0E0,0E0,0E0],"parents":[2147483647,0,0,1,1,3,3,4,4],"right_children":[2,4,-1,6,8,-1,-1,-1,-1],"split_conditions":[5.045E0,3.375E0,-6.115315E-2,4.135E0,1.0405E2,6.2316604E-2,1.20743355E-2,1.5439129E-2,-4.3823555E-2],"split_indices":[3,4,0,3,2,0,0,0,0],"split_type":[0,0,0,0,0,0,0,0,0],"sum_hessian":[1.1941997E1,1.0578636E1,1.363361E0,7.6500063E0,2.9286294E0,1.5177574E0,6.132249E0,1.0800834E0,1.8485459E0],"tree_param":{"num_deleted":"0","num_feature":"6","num_nodes":"9","size_leaf_vector":"0"}},{"base_weights":[2.8069657E-3,1.2181284E-1,-5.955024E-1,3.8229617E-1,-8.627698E-2,5.7337314E-1,-8.6911514E-2,3.5479376E-1,-2.9324546E-1],"categories":[],"categories_nodes":[],"categories_segments":[],"categories_sizes":[],"default_left":[1,1,0,1,1,0,0,0,0],"id":83,"left_children":[1,3,-1,5,7,-1,-1,-1,-1],"loss_changes":[9.8278517E-1,6.559599E-1,0E0,5.239422E-1,7.6177233E-1,0E0,0E0,0E0,0E0],"parents":[2147483647,0,0,1,1,3,3,4,4],"right_children":[2,4,-1,6,8,-1,-1,-1,-1],"split_conditions":[5.045E0,3.205E0,-5.9550237E-2,1.04155E2,4.115E0,5.7337314E-2,-8.691152E-3,3.5479378E-2,-2.9324546E-2],"split_indices":[3,4,0,2,3,0,0,0,0],"split_type":[0,0,0,0,0,0,0,0,0],"sum_hessian":[1.1783926E1,1.0493197E1,1.2907295E0,4.2881694E0,6.2050276E0,2.889476E0,1.3986933E0,1.7536283E0,4.4513993E0],"tree_param":{"num_deleted":"0","num_feature":"6","num_nodes":"9","size_leaf_vector":"0"}},{"base_weights":[2.2597485E-3,1.2788731E-1,-5.288742E-1,-1.8253599E-1,4.5691985E-1,-1.5560776E-2,-4.7318614E-1,6.6954464E-1,1.7383906E-1],"categories":[],"categories_nodes":[],"categories_segments":[],"categories_sizes":[],"default_left":[1,1,0,1,1,0,0,0,0],"id":84,"left_children":[1,3,-1,5,7,-1,-1,-1,-1],"loss_changes":[9.0874845E-1,1.2069032E0,0E0,3.0199677E-1,2.221899E-1,0E0,0E0,0E0,0E0],"parents":[2147483647,0,0,1,1,3,3,4,4],"right_children":[2,4,-1,6,8,-1,-1,-1,-1],"split_conditions":[4.885E0,1.1253E2,-5.288742E-2,1.04165E2,1.03975006E2,-1.5560776E-3,-4.7318615E-2,6.695446E-2,1.7383907E-2],"split_indices":[3,5,0,2,2,0,0,0,0],"split_type":[0,0,0,0,0,0,0,0,0],"sum_hessian":[1.1605639E1,9.999666E0,1.6059735E0,5.374432E0,4.625234E0,4.0825763E0,1.2918559E0,1.8616917E0,2.7635422E0],"tree_param":{"num_deleted":"0","num_feature":"6","num_nodes":"9","size_leaf_vector":"0"}},{"base_weights":[8.159651E-4,4.7731927E-1,-8.408521E-2,6.632214E-2,-3.7035704E-1,-9.52571E-2,5.074885E-1,-6.552832E-2,-4.7111624E-1],"categories":[],"categories_nodes":[],"categories_segments":[],"categories_sizes":[],"default_left":[1,0,1,1,1,0,0,0,0],"id":85,"left_children":[1,-1,3,5,7,-1,-1,-1,-1],"loss_changes":[5.411606E-1,0E0,5.1377445E-1,6.3974816E-1,9.39911E-2,0E0,0E0,0E0,0E0],"parents":[2147483647,0,0,2,2,3,3,4,4],"right_children":[2,-1,4,6,8,-1,-1,-1,-1],"split_conditions":[1.03634995E2,4.773193E-2,3.355E0,3.2849998E0,1.04134995E2,-9.525711E-3,5.074885E-2,-6.5528317E-3,-4.7111627E-2],"split_indices":[2,0,4,4,1,0,0,0,0],"split_type":[0,0,0,0,0,0,0,0,0],"sum_hessian":[1.1384539E1,1.0226898E0,1.0361849E1,7.2965584E0,3.0652907E0,5.9144444E0,1.3821139E0,1.1714941E0,1.8937966E0],"tree_param":{"num_deleted":"0","num_feature":"6","num_nodes":"9","size_leaf_vector":"0"}},{"base_weights":[3.6297655E-3,1.1340257E-1,-5.650866E-1,3.667935E-1,-8.6678945E-2,-7.886628E-2,5.0118077E-1,3.2691634E-1,-2.7896473E-1],"categories":[],"categories_nodes":[],"categories_segments":[],"categories_sizes":[],"default_left":[1,1,0,1,1,0,0,0,0],"id":86,"left_children":[1,3,-1,5,7,-1,-1,-1,-1],"loss_changes":[8.343442E-1,5.983412E-1,0E0,3.4626937E-1,6.521193E-1,0E0,0E0,0E0,0E0],"parents":[2147483647,0,0,1,1,3,3,4,4],"right_children":[2,4,-1,6,8,-1,-1,-1,-1],"split_conditions":[5.045E0,3.205E0,-5.650866E-2,1.71785E2,4.115E0,-7.886629E-3,5.0118078E-2,3.2691635E-2,-2.7896473E-2],"split_indices":[3,4,0,0,3,0,0,0,0],"split_type":[0,0,0,0,0,0,0,0,0],"sum_hessian":[1.1338092E1,1.0174771E1,1.1633204E0,4.1216874E0,6.0530844E0,1.0506446E0,3.0710428E0,1.6988343E0,4.35425E0],"tree_param":{"num_deleted":"0","num_feature":"6","num_nodes":"9","size_leaf_vector":"0"}},{"base_weights":[2.5864877E-3,-5.602197E-1,1.12240896E-1,5.9399015E-1,-6.1946876E-2,8.604022E-2,-5.038868E-1],"categories":[],"categories_nodes":[],"categories_segments":[],"categories_sizes":[],"default_left":[1,0,1,0,1,0,0],"id":87,"left_children":[1,-1,3,-1,5,-1,-1],"loss_changes":[8.144092E-1,0E0,9.61952E-1,0E0,6.3214815E-1,0E0,0E0],"parents":[2147483647,0,0,2,2,4,4],"right_children":[2,-1,4,-1,6,-1,-1],"split_conditions":[1.11755005E2,-5.602197E-2,4.125E0,5.9399016E-2,3.395E0,8.604023E-3,-5.0388683E-2],"split_indices":[5,0,3,0,4,0,0],"split_type":[0,0,0,0,0,0,0],"sum_hessian":[1.1177583E1,1.1526413E0,1.0024941E1,2.0221756E0,8.002766E0,6.5985136E0,1.4042522E0],"tree_param":{"num_deleted":"0","num_feature":"6","num_nodes":"7","size_leaf_vector":"0"}},{"base_weights":[-8.459829E-4,-2.3579255E-1,2.6348573E-1,-6.275416E-2,-5.199476E-1,4.2703283E-1,-2.8408954E-1,3.087231E-1,-4.4062024E-1,5.694632E-1,1.5160657E-1],"categories":[],"categories_nodes":[],"categories_segments":[],"categories_sizes":[],"default_left":[1,1,1,1,0,1,0,0,0,0,0],"id":88,"left_children":[1,3,5,7,-1,9,-1,-1,-1,-1,-1],"loss_changes":[8.088954E-1,3.063392E-1,6.703432E-1,8.970971E-1,0E0,1.1452639E-1,0E0,0E0,0E0,0E0,0E0],"parents":[2147483647,0,0,1,1,2,2,3,3,5,5],"right_children":[2,4,6,8,-1,10,-1,-1,-1,-1,-1],"split_conditions":[1.12545E2,4.5950003E0,4.835E0,1.71965E2,-5.199476E-2,1.04145004E2,-2.8408954E-2,3.087231E-2,-4.4062026E-2,5.694632E-2,1.5160657E-2],"split_indices":[5,3,3,0,0,1,0,0,0,0,0],"split_type":[0,0,0,0,0,0,0,0,0,0,0],"sum_hessian":[1.10245E1,5.8938355E0,5.1306643E0,4.4219193E0,1.4719164E0,4.120201E0,1.010463E0,2.3220816E0,2.0998375E0,2.0121129E0,2.1080883E0],"tree_param":{"num_deleted":"0","num_feature":"6","num_nodes":"11","size_leaf_vector":"0"}},{"base_weights":[-2.4894981E-3,-1.6105497E-1,3.5718054E-1,3.34794E-2,-5.107397E-1,5.597568E-1,4.7470048E-2,5.491654E-1,-1.9467318E-1],"categories":[],"categories_nodes":[],"categories_segments":[],"categories_sizes":[],"default_left":[1,1,1,1,0,0,0,0,0],"id":89,"left_children":[1,3,5,7,-1,-1,-1,-1,-1],"loss_changes":[7.338141E-1,6.23831E-1,2.205646E-1,8.9160043E-1,0E0,0E0,0E0,0E0,0E0],"parents":[2147483647,0,0,1,1,2,2,3,3],"right_children":[2,4,6,8,-1,-1,-1,-1,-1],"split_conditions":[1.12994995E2,4.5950003E0,1.04145004E2,1.03935E2,-5.107397E-2,5.5975683E-2,4.7470047E-3,5.4916542E-2,-1.9467318E-2],"split_indices":[5,3,1,1,0,0,0,0,0],"split_type":[0,0,0,0,0,0,0,0,0],"sum_hessian":[1.0858209E1,7.9191546E0,2.9390535E0,5.6694317E0,2.2497234E0,1.2887496E0,1.650304E0,1.3073839E0,4.3620477E0],"tree_param":{"num_deleted":"0","num_feature":"6","num_nodes":"9","size_leaf_vector":"0"}},{"base_weights":[1.6899089E-3,-5.308357E-1,1.0339364E-1,2.555296E-1,-1.9391312E-1,1.0066037E-1,5.393171E-1,-4.5107278E-1,7.617934E-2],"categories":[],"categories_nodes":[],"categories_segments":[],"categories_sizes":[],"default_left":[1,0,1,1,1,0,0,0,0],"id":90,"left_children":[1,-1,3,5,7,-1,-1,-1,-1],"loss_changes":[6.8804634E-1,0E0,5.3139246E-1,2.7438548E-1,3.2431334E-1,0E0,0E0,0E0,0E0],"parents":[2147483647,0,0,2,2,3,3,4,4],"right_children":[2,-1,4,6,8,-1,-1,-1,-1],"split_conditions":[1.11755005E2,-5.308357E-2,1.04165E2,1.12985E2,1.12665E2,1.0066037E-2,5.393171E-2,-4.510728E-2,7.617934E-3],"split_indices":[5,0,2,5,5,0,0,0,0],"split_type":[0,0,0,0,0,0,0,0,0],"sum_hessian":[1.0690606E1,1.0377045E0,9.652902E0,6.478356E0,3.1745455E0,5.067571E0,1.410785E0,1.2829545E0,1.8915911E0],"tree_param":{"num_deleted":"0","num_feature":"6","num_nodes":"9","size_leaf_vector":"0"}},{"base_weights":[-7.636896E-4,1.014802E-1,-5.308674E-1,2.2736377E-1,-2.7349386E-1,7.982428E-2,4.5644888E-1],"categories":[],"categories_nodes":[],"categories_segments":[],"categories_sizes":[],"default_left":[1,1,0,1,0,0,0],"id":91,"left_children":[1,3,-1,5,-1,-1,-1],"loss_changes":[6.795157E-1,5.5858696E-1,0E0,2.4812794E-1,0E0,0E0,0E0],"parents":[2147483647,0,0,1,1,3,3],"right_children":[2,4,-1,6,-1,-1,-1],"split_conditions":[5.045E0,3.395E0,-5.308674E-2,3.275E0,-2.7349386E-2,7.982428E-3,4.564489E-2],"split_indices":[3,4,0,4,0,0,0],"split_type":[0,0,0,0,0,0,0],"sum_hessian":[1.0543261E1,9.516356E0,1.0269042E0,7.4192686E0,2.097088E0,5.333038E0,2.0862305E0],"tree_param":{"num_deleted":"0","num_feature":"6","num_nodes":"7","size_leaf_vector":"0"}},{"base_weights":[-3.1178498E-3,-2.1388817E-1,2.425908E-1,1.11106664E-1,-3.0479714E-1,4.9864724E-1,1.9735344E-2,-6.389218E-1,-5.4848857E-2,-2.1077296E-1,3.0417937E-1],"categories":[],"categories_nodes":[],"categories_segments":[],"categories_sizes":[],"default_left":[1,1,1,0,1,0,1,0,0,0,0],"id":92,"left_children":[1,3,5,-1,7,-1,9,-1,-1,-1,-1],"loss_changes":[6.4565444E-1,2.3190099E-1,3.1898516E-1,0E0,4.2469078E-1,0E0,3.3439046E-1,0E0,0E0,0E0,0E0],"parents":[2147483647,0,0,1,1,2,2,4,4,6,6],"right_children":[2,4,6,-1,8,-1,10,-1,-1,-1,-1],"split_conditions":[1.12545E2,1.03875E2,1.03945E2,1.1110666E-2,1.04055E2,4.9864724E-2,1.04205E2,-6.389218E-2,-5.484886E-3,-2.1077296E-2,3.0417938E-2],"split_indices":[5,1,2,0,1,0,2,0,0,0,0],"split_type":[0,0,0,0,0,0,0,0,0,0,0],"sum_hessian":[1.04653225E1,5.702871E0,4.7624516E0,1.1979798E0,4.504891E0,1.6402735E0,3.122178E0,1.2618564E0,3.2430346E0,1.8676602E0,1.2545179E0],"tree_param":{"num_deleted":"0","num_feature":"6","num_nodes":"11","size_leaf_vector":"0"}},{"base_weights":[-2.6575858E-3,3.9904645E-1,-1.3221191E-1,5.711331E-1,2.9812878E-2,-5.7699025E-1,9.290309E-3,1.8864247E-1,-2.7762723E-1],"categories":[],"categories_nodes":[],"categories_segments":[],"categories_sizes":[],"default_left":[1,1,1,0,0,0,1,0,0],"id":93,"left_children":[1,3,5,-1,-1,-1,7,-1,-1],"loss_changes":[6.4386505E-1,1.7478153E-1,5.9315854E-1,0E0,0E0,0E0,4.6762156E-1,0E0,0E0],"parents":[2147483647,0,0,1,1,2,2,6,6],"right_children":[2,4,6,-1,-1,-1,8,-1,-1],"split_conditions":[4.115E0,1.7214499E2,1.12165E2,5.711331E-2,2.981288E-3,-5.7699025E-2,1.04165E2,1.8864248E-2,-2.7762724E-2],"split_indices":[3,0,5,0,0,0,2,0,0],"split_type":[0,0,0,0,0,0,0,0,0],"sum_hessian":[1.035815E1,2.0186994E0,8.33945E0,1.0039752E0,1.0147243E0,1.2699766E0,7.0694733E0,4.560946E0,2.508527E0],"tree_param":{"num_deleted":"0","num_feature":"6","num_nodes":"9","size_leaf_vector":"0"}},{"base_weights":[-3.0889818E-3,-1.7646292E-1,2.6562628E-1,1.2126538E-1,-3.7962696E-1,-1.07868165E-1,4.414598E-1,-2.992076E-1,4.890591E-1,-7.4552E-1,-4.5758836E-2],"categories":[],"categories_nodes":[],"categories_segments":[],"categories_sizes":[],"default_left":[1,1,1,1,1,0,0,0,0,0,0],"id":94,"left_children":[1,3,5,7,9,-1,-1,-1,-1,-1,-1],"loss_changes":[5.705925E-1,4.9568537E-1,3.6335558E-1,7.298233E-1,5.352348E-1,0E0,0E0,0E0,0E0,0E0,0E0],"parents":[2147483647,0,0,1,1,2,2,3,3,4,4],"right_children":[2,4,6,8,10,-1,-1,-1,-1,-1,-1],"split_conditions":[1.12715E2,3.205E0,1.7183499E2,1.12425E2,3.2849998E0,-1.07868165E-2,4.4145983E-2,-2.992076E-2,4.890591E-2,-7.4552E-2,-4.5758835E-3],"split_indices":[5,4,0,5,4,0,0,0,0,0,0],"split_type":[0,0,0,0,0,0,0,0,0,0,0],"sum_hessian":[1.0241452E1,6.4337397E0,3.8077123E0,2.7730572E0,3.6606824E0,1.342529E0,2.4651833E0,1.3808767E0,1.3921806E0,1.1582999E0,2.5023825E0],"tree_param":{"num_deleted":"0","num_feature":"6","num_nodes":"11","size_leaf_vector":"0"}},{"base_weights":[-5.1431996E-3,-1.6875057E-1,2.5010917E-1,-2.1972079E-2,-5.270303E-1,-1.01662494E-1,4.1935173E-1,1.6540343E-1,-3.3696857E-1],"categories":[],"categories_nodes":[],"categories_segments":[],"categories_sizes":[],"default_left":[1,1,1,1,0,0,0,0,0],"id":95,"left_children":[1,3,5,7,-1,-1,-1,-1,-1],"loss_changes":[5.054038E-1,3.7527204E-1,3.245457E-1,4.253324E-1,0E0,0E0,0E0,0E0,0E0],"parents":[2147483647,0,0,1,1,2,2,3,3],"right_children":[2,4,6,8,-1,-1,-1,-1,-1],"split_conditions":[1.12715E2,1.04205E2,1.7183499E2,1.12475006E2,-5.270303E-2,-1.0166249E-2,4.1935172E-2,1.6540343E-2,-3.3696856E-2],"split_indices":[5,2,0,5,0,0,0,0,0],"split_type":[0,0,0,0,0,0,0,0,0],"sum_hessian":[1.0091589E1,6.356313E0,3.7352755E0,5.2619476E0,1.0943656E0,1.3430492E0,2.3922265E0,3.5971117E0,1.6648362E0],"tree_param":{"num_deleted":"0","num_feature":"6",